digraph Tree {
node [shape=box, fontname="helvetica"] ;
edge [fontname="helvetica"] ;
0 [label="X[2] <= 0.204\nentropy = 0.461\nsamples = 86294\nvalue = [[8405, 77889]\n[77889, 8405]]"] ;
1 [label="X[4] <= 0.327\nentropy = 0.324\nsamples = 48702\nvalue = [[2882, 45820]\n[45820, 2882]]"] ;
0 -> 1 [labeldistance=2.5, labelangle=45, headlabel="True"] ;
2 [label="entropy = 0.687\nsamples = 229\nvalue = [[42, 187]\n[187, 42]]"] ;
1 -> 2 ;
3 [label="entropy = 0.322\nsamples = 48473\nvalue = [[2840, 45633]\n[45633, 2840]]"] ;
1 -> 3 ;
4 [label="X[2] <= 0.497\nentropy = 0.602\nsamples = 37592\nvalue = [[5523, 32069]\n[32069, 5523]]"] ;
0 -> 4 [labeldistance=2.5, labelangle=-45, headlabel="False"] ;
5 [label="entropy = 0.591\nsamples = 36405\nvalue = [[5194, 31211]\n[31211, 5194]]"] ;
4 -> 5 ;
6 [label="entropy = 0.852\nsamples = 1187\nvalue = [[329, 858]\n[858, 329]]"] ;
4 -> 6 ;
}