digraph Tree {
node [shape=box, fontname="helvetica"] ;
edge [fontname="helvetica"] ;
0 [label="X[1] <= 0.003\ngini = 0.176\nsamples = 86294\nvalue = [[8405, 77889]\n[77889, 8405]]"] ;
1 [label="X[0] <= 0.003\ngini = 0.002\nsamples = 58537\nvalue = [[61, 58476]\n[58476, 61]]"] ;
0 -> 1 [labeldistance=2.5, labelangle=45, headlabel="True"] ;
2 [label="X[4] <= 0.541\ngini = 0.0\nsamples = 57613\nvalue = [[14, 57599]\n[57599, 14]]"] ;
1 -> 2 ;
3 [label="X[2] <= 0.225\ngini = 0.021\nsamples = 857\nvalue = [[9, 848]\n[848, 9]]"] ;
2 -> 3 ;
4 [label="X[2] <= 0.225\ngini = 0.031\nsamples = 501\nvalue = [[8, 493]\n[493, 8]]"] ;
3 -> 4 ;
5 [label="X[2] <= 0.208\ngini = 0.028\nsamples = 500\nvalue = [[7, 493]\n[493, 7]]"] ;
4 -> 5 ;
6 [label="X[2] <= 0.14\ngini = 0.017\nsamples = 461\nvalue = [[4, 457]\n[457, 4]]"] ;
5 -> 6 ;
7 [label="gini = 0.0\nsamples = 216\nvalue = [[0, 216]\n[216, 0]]"] ;
6 -> 7 ;
8 [label="X[2] <= 0.14\ngini = 0.032\nsamples = 245\nvalue = [[4, 241]\n[241, 4]]"] ;
6 -> 8 ;
9 [label="gini = 0.0\nsamples = 1\nvalue = [[1, 0]\n[0, 1]]"] ;
8 -> 9 ;
10 [label="X[2] <= 0.143\ngini = 0.024\nsamples = 244\nvalue = [[3, 241]\n[241, 3]]"] ;
8 -> 10 ;
11 [label="X[2] <= 0.142\ngini = 0.375\nsamples = 4\nvalue = [[1, 3]\n[3, 1]]"] ;
10 -> 11 ;
12 [label="gini = 0.0\nsamples = 3\nvalue = [[0, 3]\n[3, 0]]"] ;
11 -> 12 ;
13 [label="gini = 0.0\nsamples = 1\nvalue = [[1, 0]\n[0, 1]]"] ;
11 -> 13 ;
14 [label="X[2] <= 0.184\ngini = 0.017\nsamples = 240\nvalue = [[2, 238]\n[238, 2]]"] ;
10 -> 14 ;
15 [label="gini = 0.0\nsamples = 140\nvalue = [[0, 140]\n[140, 0]]"] ;
14 -> 15 ;
16 [label="X[2] <= 0.185\ngini = 0.039\nsamples = 100\nvalue = [[2, 98]\n[98, 2]]"] ;
14 -> 16 ;
17 [label="gini = 0.0\nsamples = 1\nvalue = [[1, 0]\n[0, 1]]"] ;
16 -> 17 ;
18 [label="X[2] <= 0.204\ngini = 0.02\nsamples = 99\nvalue = [[1, 98]\n[98, 1]]"] ;
16 -> 18 ;
19 [label="gini = 0.0\nsamples = 63\nvalue = [[0, 63]\n[63, 0]]"] ;
18 -> 19 ;
20 [label="X[2] <= 0.204\ngini = 0.054\nsamples = 36\nvalue = [[1, 35]\n[35, 1]]"] ;
18 -> 20 ;
21 [label="gini = 0.0\nsamples = 1\nvalue = [[1, 0]\n[0, 1]]"] ;
20 -> 21 ;
22 [label="gini = 0.0\nsamples = 35\nvalue = [[0, 35]\n[35, 0]]"] ;
20 -> 22 ;
23 [label="X[2] <= 0.209\ngini = 0.142\nsamples = 39\nvalue = [[3, 36]\n[36, 3]]"] ;
5 -> 23 ;
24 [label="gini = 0.0\nsamples = 1\nvalue = [[1, 0]\n[0, 1]]"] ;
23 -> 24 ;
25 [label="X[3] <= 0.646\ngini = 0.1\nsamples = 38\nvalue = [[2, 36]\n[36, 2]]"] ;
23 -> 25 ;
26 [label="gini = 0.0\nsamples = 22\nvalue = [[0, 22]\n[22, 0]]"] ;
25 -> 26 ;
27 [label="X[2] <= 0.214\ngini = 0.219\nsamples = 16\nvalue = [[2, 14]\n[14, 2]]"] ;
25 -> 27 ;
28 [label="gini = 0.0\nsamples = 1\nvalue = [[1, 0]\n[0, 1]]"] ;
27 -> 28 ;
29 [label="X[3] <= 0.74\ngini = 0.124\nsamples = 15\nvalue = [[1, 14]\n[14, 1]]"] ;
27 -> 29 ;
30 [label="X[3] <= 0.73\ngini = 0.375\nsamples = 4\nvalue = [[1, 3]\n[3, 1]]"] ;
29 -> 30 ;
31 [label="gini = 0.0\nsamples = 3\nvalue = [[0, 3]\n[3, 0]]"] ;
30 -> 31 ;
32 [label="gini = 0.0\nsamples = 1\nvalue = [[1, 0]\n[0, 1]]"] ;
30 -> 32 ;
33 [label="gini = 0.0\nsamples = 11\nvalue = [[0, 11]\n[11, 0]]"] ;
29 -> 33 ;
34 [label="gini = 0.0\nsamples = 1\nvalue = [[1, 0]\n[0, 1]]"] ;
4 -> 34 ;
35 [label="X[3] <= 0.817\ngini = 0.006\nsamples = 356\nvalue = [[1, 355]\n[355, 1]]"] ;
3 -> 35 ;
36 [label="gini = 0.0\nsamples = 263\nvalue = [[0, 263]\n[263, 0]]"] ;
35 -> 36 ;
37 [label="X[3] <= 0.818\ngini = 0.021\nsamples = 93\nvalue = [[1, 92]\n[92, 1]]"] ;
35 -> 37 ;
38 [label="gini = 0.0\nsamples = 1\nvalue = [[1, 0]\n[0, 1]]"] ;
37 -> 38 ;
39 [label="gini = 0.0\nsamples = 92\nvalue = [[0, 92]\n[92, 0]]"] ;
37 -> 39 ;
40 [label="X[1] <= 0.002\ngini = 0.0\nsamples = 56756\nvalue = [[5, 56751]\n[56751, 5]]"] ;
2 -> 40 ;
41 [label="gini = 0.0\nsamples = 54909\nvalue = [[0, 54909]\n[54909, 0]]"] ;
40 -> 41 ;
42 [label="X[3] <= 0.199\ngini = 0.005\nsamples = 1847\nvalue = [[5, 1842]\n[1842, 5]]"] ;
40 -> 42 ;
43 [label="X[3] <= 0.198\ngini = 0.026\nsamples = 232\nvalue = [[3, 229]\n[229, 3]]"] ;
42 -> 43 ;
44 [label="X[2] <= 0.219\ngini = 0.017\nsamples = 231\nvalue = [[2, 229]\n[229, 2]]"] ;
43 -> 44 ;
45 [label="gini = 0.0\nsamples = 149\nvalue = [[0, 149]\n[149, 0]]"] ;
44 -> 45 ;
46 [label="X[2] <= 0.22\ngini = 0.048\nsamples = 82\nvalue = [[2, 80]\n[80, 2]]"] ;
44 -> 46 ;
47 [label="gini = 0.0\nsamples = 1\nvalue = [[1, 0]\n[0, 1]]"] ;
46 -> 47 ;
48 [label="X[2] <= 0.233\ngini = 0.024\nsamples = 81\nvalue = [[1, 80]\n[80, 1]]"] ;
46 -> 48 ;
49 [label="X[2] <= 0.233\ngini = 0.165\nsamples = 11\nvalue = [[1, 10]\n[10, 1]]"] ;
48 -> 49 ;
50 [label="gini = 0.0\nsamples = 10\nvalue = [[0, 10]\n[10, 0]]"] ;
49 -> 50 ;
51 [label="gini = 0.0\nsamples = 1\nvalue = [[1, 0]\n[0, 1]]"] ;
49 -> 51 ;
52 [label="gini = 0.0\nsamples = 70\nvalue = [[0, 70]\n[70, 0]]"] ;
48 -> 52 ;
53 [label="gini = 0.0\nsamples = 1\nvalue = [[1, 0]\n[0, 1]]"] ;
43 -> 53 ;
54 [label="X[3] <= 0.853\ngini = 0.002\nsamples = 1615\nvalue = [[2, 1613]\n[1613, 2]]"] ;
42 -> 54 ;
55 [label="gini = 0.0\nsamples = 1352\nvalue = [[0, 1352]\n[1352, 0]]"] ;
54 -> 55 ;
56 [label="X[3] <= 0.854\ngini = 0.015\nsamples = 263\nvalue = [[2, 261]\n[261, 2]]"] ;
54 -> 56 ;
57 [label="gini = 0.0\nsamples = 1\nvalue = [[1, 0]\n[0, 1]]"] ;
56 -> 57 ;
58 [label="X[0] <= 0.002\ngini = 0.008\nsamples = 262\nvalue = [[1, 261]\n[261, 1]]"] ;
56 -> 58 ;
59 [label="X[2] <= 0.208\ngini = 0.02\nsamples = 97\nvalue = [[1, 96]\n[96, 1]]"] ;
58 -> 59 ;
60 [label="X[2] <= 0.205\ngini = 0.054\nsamples = 36\nvalue = [[1, 35]\n[35, 1]]"] ;
59 -> 60 ;
61 [label="gini = 0.0\nsamples = 35\nvalue = [[0, 35]\n[35, 0]]"] ;
60 -> 61 ;
62 [label="gini = 0.0\nsamples = 1\nvalue = [[1, 0]\n[0, 1]]"] ;
60 -> 62 ;
63 [label="gini = 0.0\nsamples = 61\nvalue = [[0, 61]\n[61, 0]]"] ;
59 -> 63 ;
64 [label="gini = 0.0\nsamples = 165\nvalue = [[0, 165]\n[165, 0]]"] ;
58 -> 64 ;
65 [label="X[0] <= 0.003\ngini = 0.097\nsamples = 924\nvalue = [[47, 877]\n[877, 47]]"] ;
1 -> 65 ;
66 [label="X[2] <= 0.343\ngini = 0.32\nsamples = 10\nvalue = [[8, 2]\n[2, 8]]"] ;
65 -> 66 ;
67 [label="gini = 0.0\nsamples = 8\nvalue = [[8, 0]\n[0, 8]]"] ;
66 -> 67 ;
68 [label="gini = 0.0\nsamples = 2\nvalue = [[0, 2]\n[2, 0]]"] ;
66 -> 68 ;
69 [label="X[3] <= 0.052\ngini = 0.082\nsamples = 914\nvalue = [[39, 875]\n[875, 39]]"] ;
65 -> 69 ;
70 [label="X[2] <= 0.14\ngini = 0.49\nsamples = 7\nvalue = [[3, 4]\n[4, 3]]"] ;
69 -> 70 ;
71 [label="gini = 0.0\nsamples = 3\nvalue = [[0, 3]\n[3, 0]]"] ;
70 -> 71 ;
72 [label="X[0] <= 0.003\ngini = 0.375\nsamples = 4\nvalue = [[3, 1]\n[1, 3]]"] ;
70 -> 72 ;
73 [label="gini = 0.0\nsamples = 3\nvalue = [[3, 0]\n[0, 3]]"] ;
72 -> 73 ;
74 [label="gini = 0.0\nsamples = 1\nvalue = [[0, 1]\n[1, 0]]"] ;
72 -> 74 ;
75 [label="X[2] <= 0.399\ngini = 0.076\nsamples = 907\nvalue = [[36, 871]\n[871, 36]]"] ;
69 -> 75 ;
76 [label="X[3] <= 0.266\ngini = 0.064\nsamples = 871\nvalue = [[29, 842]\n[842, 29]]"] ;
75 -> 76 ;
77 [label="X[3] <= 0.266\ngini = 0.14\nsamples = 159\nvalue = [[12, 147]\n[147, 12]]"] ;
76 -> 77 ;
78 [label="X[2] <= 0.17\ngini = 0.13\nsamples = 158\nvalue = [[11, 147]\n[147, 11]]"] ;
77 -> 78 ;
79 [label="X[3] <= 0.103\ngini = 0.036\nsamples = 55\nvalue = [[1, 54]\n[54, 1]]"] ;
78 -> 79 ;
80 [label="X[1] <= 0.003\ngini = 0.444\nsamples = 3\nvalue = [[1, 2]\n[2, 1]]"] ;
79 -> 80 ;
81 [label="gini = 0.0\nsamples = 1\nvalue = [[1, 0]\n[0, 1]]"] ;
80 -> 81 ;
82 [label="gini = 0.0\nsamples = 2\nvalue = [[0, 2]\n[2, 0]]"] ;
80 -> 82 ;
83 [label="gini = 0.0\nsamples = 52\nvalue = [[0, 52]\n[52, 0]]"] ;
79 -> 83 ;
84 [label="X[2] <= 0.173\ngini = 0.175\nsamples = 103\nvalue = [[10, 93]\n[93, 10]]"] ;
78 -> 84 ;
85 [label="gini = 0.0\nsamples = 1\nvalue = [[1, 0]\n[0, 1]]"] ;
84 -> 85 ;
86 [label="X[3] <= 0.178\ngini = 0.161\nsamples = 102\nvalue = [[9, 93]\n[93, 9]]"] ;
84 -> 86 ;
87 [label="X[3] <= 0.082\ngini = 0.1\nsamples = 57\nvalue = [[3, 54]\n[54, 3]]"] ;
86 -> 87 ;
88 [label="X[3] <= 0.074\ngini = 0.298\nsamples = 11\nvalue = [[2, 9]\n[9, 2]]"] ;
87 -> 88 ;
89 [label="gini = 0.0\nsamples = 8\nvalue = [[0, 8]\n[8, 0]]"] ;
88 -> 89 ;
90 [label="X[3] <= 0.078\ngini = 0.444\nsamples = 3\nvalue = [[2, 1]\n[1, 2]]"] ;
88 -> 90 ;
91 [label="gini = 0.0\nsamples = 1\nvalue = [[1, 0]\n[0, 1]]"] ;
90 -> 91 ;
92 [label="X[2] <= 0.249\ngini = 0.5\nsamples = 2\nvalue = [[1, 1]\n[1, 1]]"] ;
90 -> 92 ;
93 [label="gini = 0.0\nsamples = 1\nvalue = [[1, 0]\n[0, 1]]"] ;
92 -> 93 ;
94 [label="gini = 0.0\nsamples = 1\nvalue = [[0, 1]\n[1, 0]]"] ;
92 -> 94 ;
95 [label="X[2] <= 0.276\ngini = 0.043\nsamples = 46\nvalue = [[1, 45]\n[45, 1]]"] ;
87 -> 95 ;
96 [label="gini = 0.0\nsamples = 32\nvalue = [[0, 32]\n[32, 0]]"] ;
95 -> 96 ;
97 [label="X[2] <= 0.283\ngini = 0.133\nsamples = 14\nvalue = [[1, 13]\n[13, 1]]"] ;
95 -> 97 ;
98 [label="gini = 0.0\nsamples = 1\nvalue = [[1, 0]\n[0, 1]]"] ;
97 -> 98 ;
99 [label="gini = 0.0\nsamples = 13\nvalue = [[0, 13]\n[13, 0]]"] ;
97 -> 99 ;
100 [label="X[3] <= 0.182\ngini = 0.231\nsamples = 45\nvalue = [[6, 39]\n[39, 6]]"] ;
86 -> 100 ;
101 [label="gini = 0.0\nsamples = 1\nvalue = [[1, 0]\n[0, 1]]"] ;
100 -> 101 ;
102 [label="X[3] <= 0.25\ngini = 0.201\nsamples = 44\nvalue = [[5, 39]\n[39, 5]]"] ;
100 -> 102 ;
103 [label="X[3] <= 0.247\ngini = 0.245\nsamples = 35\nvalue = [[5, 30]\n[30, 5]]"] ;
102 -> 103 ;
104 [label="X[2] <= 0.262\ngini = 0.208\nsamples = 34\nvalue = [[4, 30]\n[30, 4]]"] ;
103 -> 104 ;
105 [label="X[3] <= 0.234\ngini = 0.1\nsamples = 19\nvalue = [[1, 18]\n[18, 1]]"] ;
104 -> 105 ;
106 [label="gini = 0.0\nsamples = 17\nvalue = [[0, 17]\n[17, 0]]"] ;
105 -> 106 ;
107 [label="X[2] <= 0.2\ngini = 0.5\nsamples = 2\nvalue = [[1, 1]\n[1, 1]]"] ;
105 -> 107 ;
108 [label="gini = 0.0\nsamples = 1\nvalue = [[1, 0]\n[0, 1]]"] ;
107 -> 108 ;
109 [label="gini = 0.0\nsamples = 1\nvalue = [[0, 1]\n[1, 0]]"] ;
107 -> 109 ;
110 [label="X[2] <= 0.264\ngini = 0.32\nsamples = 15\nvalue = [[3, 12]\n[12, 3]]"] ;
104 -> 110 ;
111 [label="gini = 0.0\nsamples = 1\nvalue = [[1, 0]\n[0, 1]]"] ;
110 -> 111 ;
112 [label="X[3] <= 0.205\ngini = 0.245\nsamples = 14\nvalue = [[2, 12]\n[12, 2]]"] ;
110 -> 112 ;
113 [label="X[3] <= 0.203\ngini = 0.408\nsamples = 7\nvalue = [[2, 5]\n[5, 2]]"] ;
112 -> 113 ;
114 [label="X[3] <= 0.191\ngini = 0.278\nsamples = 6\nvalue = [[1, 5]\n[5, 1]]"] ;
113 -> 114 ;
115 [label="X[3] <= 0.19\ngini = 0.444\nsamples = 3\nvalue = [[1, 2]\n[2, 1]]"] ;
114 -> 115 ;
116 [label="gini = 0.0\nsamples = 2\nvalue = [[0, 2]\n[2, 0]]"] ;
115 -> 116 ;
117 [label="gini = 0.0\nsamples = 1\nvalue = [[1, 0]\n[0, 1]]"] ;
115 -> 117 ;
118 [label="gini = 0.0\nsamples = 3\nvalue = [[0, 3]\n[3, 0]]"] ;
114 -> 118 ;
119 [label="gini = 0.0\nsamples = 1\nvalue = [[1, 0]\n[0, 1]]"] ;
113 -> 119 ;
120 [label="gini = 0.0\nsamples = 7\nvalue = [[0, 7]\n[7, 0]]"] ;
112 -> 120 ;
121 [label="gini = 0.0\nsamples = 1\nvalue = [[1, 0]\n[0, 1]]"] ;
103 -> 121 ;
122 [label="gini = 0.0\nsamples = 9\nvalue = [[0, 9]\n[9, 0]]"] ;
102 -> 122 ;
123 [label="gini = 0.0\nsamples = 1\nvalue = [[1, 0]\n[0, 1]]"] ;
77 -> 123 ;
124 [label="X[3] <= 0.971\ngini = 0.047\nsamples = 712\nvalue = [[17, 695]\n[695, 17]]"] ;
76 -> 124 ;
125 [label="X[2] <= 0.151\ngini = 0.043\nsamples = 690\nvalue = [[15, 675]\n[675, 15]]"] ;
124 -> 125 ;
126 [label="X[3] <= 0.835\ngini = 0.017\nsamples = 227\nvalue = [[2, 225]\n[225, 2]]"] ;
125 -> 126 ;
127 [label="gini = 0.0\nsamples = 204\nvalue = [[0, 204]\n[204, 0]]"] ;
126 -> 127 ;
128 [label="X[3] <= 0.841\ngini = 0.159\nsamples = 23\nvalue = [[2, 21]\n[21, 2]]"] ;
126 -> 128 ;
129 [label="gini = 0.0\nsamples = 1\nvalue = [[1, 0]\n[0, 1]]"] ;
128 -> 129 ;
130 [label="X[2] <= 0.07\ngini = 0.087\nsamples = 22\nvalue = [[1, 21]\n[21, 1]]"] ;
128 -> 130 ;
131 [label="X[2] <= 0.064\ngini = 0.375\nsamples = 4\nvalue = [[1, 3]\n[3, 1]]"] ;
130 -> 131 ;
132 [label="gini = 0.0\nsamples = 3\nvalue = [[0, 3]\n[3, 0]]"] ;
131 -> 132 ;
133 [label="gini = 0.0\nsamples = 1\nvalue = [[1, 0]\n[0, 1]]"] ;
131 -> 133 ;
134 [label="gini = 0.0\nsamples = 18\nvalue = [[0, 18]\n[18, 0]]"] ;
130 -> 134 ;
135 [label="X[2] <= 0.152\ngini = 0.055\nsamples = 463\nvalue = [[13, 450]\n[450, 13]]"] ;
125 -> 135 ;
136 [label="gini = 0.0\nsamples = 1\nvalue = [[1, 0]\n[0, 1]]"] ;
135 -> 136 ;
137 [label="X[3] <= 0.429\ngini = 0.051\nsamples = 462\nvalue = [[12, 450]\n[450, 12]]"] ;
135 -> 137 ;
138 [label="X[3] <= 0.427\ngini = 0.101\nsamples = 94\nvalue = [[5, 89]\n[89, 5]]"] ;
137 -> 138 ;
139 [label="X[2] <= 0.199\ngini = 0.082\nsamples = 93\nvalue = [[4, 89]\n[89, 4]]"] ;
138 -> 139 ;
140 [label="X[2] <= 0.199\ngini = 0.191\nsamples = 28\nvalue = [[3, 25]\n[25, 3]]"] ;
139 -> 140 ;
141 [label="X[3] <= 0.357\ngini = 0.137\nsamples = 27\nvalue = [[2, 25]\n[25, 2]]"] ;
140 -> 141 ;
142 [label="gini = 0.0\nsamples = 11\nvalue = [[0, 11]\n[11, 0]]"] ;
141 -> 142 ;
143 [label="X[3] <= 0.36\ngini = 0.219\nsamples = 16\nvalue = [[2, 14]\n[14, 2]]"] ;
141 -> 143 ;
144 [label="gini = 0.0\nsamples = 1\nvalue = [[1, 0]\n[0, 1]]"] ;
143 -> 144 ;
145 [label="X[4] <= 0.537\ngini = 0.124\nsamples = 15\nvalue = [[1, 14]\n[14, 1]]"] ;
143 -> 145 ;
146 [label="gini = 0.0\nsamples = 12\nvalue = [[0, 12]\n[12, 0]]"] ;
145 -> 146 ;
147 [label="X[2] <= 0.182\ngini = 0.444\nsamples = 3\nvalue = [[1, 2]\n[2, 1]]"] ;
145 -> 147 ;
148 [label="gini = 0.0\nsamples = 1\nvalue = [[1, 0]\n[0, 1]]"] ;
147 -> 148 ;
149 [label="gini = 0.0\nsamples = 2\nvalue = [[0, 2]\n[2, 0]]"] ;
147 -> 149 ;
150 [label="gini = 0.0\nsamples = 1\nvalue = [[1, 0]\n[0, 1]]"] ;
140 -> 150 ;
151 [label="X[2] <= 0.335\ngini = 0.03\nsamples = 65\nvalue = [[1, 64]\n[64, 1]]"] ;
139 -> 151 ;
152 [label="gini = 0.0\nsamples = 55\nvalue = [[0, 55]\n[55, 0]]"] ;
151 -> 152 ;
153 [label="X[2] <= 0.344\ngini = 0.18\nsamples = 10\nvalue = [[1, 9]\n[9, 1]]"] ;
151 -> 153 ;
154 [label="gini = 0.0\nsamples = 1\nvalue = [[1, 0]\n[0, 1]]"] ;
153 -> 154 ;
155 [label="gini = 0.0\nsamples = 9\nvalue = [[0, 9]\n[9, 0]]"] ;
153 -> 155 ;
156 [label="gini = 0.0\nsamples = 1\nvalue = [[1, 0]\n[0, 1]]"] ;
138 -> 156 ;
157 [label="X[3] <= 0.669\ngini = 0.037\nsamples = 368\nvalue = [[7, 361]\n[361, 7]]"] ;
137 -> 157 ;
158 [label="X[4] <= 0.537\ngini = 0.013\nsamples = 154\nvalue = [[1, 153]\n[153, 1]]"] ;
157 -> 158 ;
159 [label="gini = 0.0\nsamples = 135\nvalue = [[0, 135]\n[135, 0]]"] ;
158 -> 159 ;
160 [label="X[3] <= 0.526\ngini = 0.1\nsamples = 19\nvalue = [[1, 18]\n[18, 1]]"] ;
158 -> 160 ;
161 [label="X[3] <= 0.522\ngini = 0.245\nsamples = 7\nvalue = [[1, 6]\n[6, 1]]"] ;
160 -> 161 ;
162 [label="gini = 0.0\nsamples = 6\nvalue = [[0, 6]\n[6, 0]]"] ;
161 -> 162 ;
163 [label="gini = 0.0\nsamples = 1\nvalue = [[1, 0]\n[0, 1]]"] ;
161 -> 163 ;
164 [label="gini = 0.0\nsamples = 12\nvalue = [[0, 12]\n[12, 0]]"] ;
160 -> 164 ;
165 [label="X[3] <= 0.67\ngini = 0.055\nsamples = 214\nvalue = [[6, 208]\n[208, 6]]"] ;
157 -> 165 ;
166 [label="gini = 0.0\nsamples = 1\nvalue = [[1, 0]\n[0, 1]]"] ;
165 -> 166 ;
167 [label="X[2] <= 0.313\ngini = 0.046\nsamples = 213\nvalue = [[5, 208]\n[208, 5]]"] ;
165 -> 167 ;
168 [label="X[2] <= 0.311\ngini = 0.059\nsamples = 165\nvalue = [[5, 160]\n[160, 5]]"] ;
167 -> 168 ;
169 [label="X[2] <= 0.239\ngini = 0.048\nsamples = 164\nvalue = [[4, 160]\n[160, 4]]"] ;
168 -> 169 ;
170 [label="X[3] <= 0.926\ngini = 0.021\nsamples = 96\nvalue = [[1, 95]\n[95, 1]]"] ;
169 -> 170 ;
171 [label="gini = 0.0\nsamples = 89\nvalue = [[0, 89]\n[89, 0]]"] ;
170 -> 171 ;
172 [label="X[3] <= 0.934\ngini = 0.245\nsamples = 7\nvalue = [[1, 6]\n[6, 1]]"] ;
170 -> 172 ;
173 [label="gini = 0.0\nsamples = 1\nvalue = [[1, 0]\n[0, 1]]"] ;
172 -> 173 ;
174 [label="gini = 0.0\nsamples = 6\nvalue = [[0, 6]\n[6, 0]]"] ;
172 -> 174 ;
175 [label="X[2] <= 0.24\ngini = 0.084\nsamples = 68\nvalue = [[3, 65]\n[65, 3]]"] ;
169 -> 175 ;
176 [label="gini = 0.0\nsamples = 1\nvalue = [[1, 0]\n[0, 1]]"] ;
175 -> 176 ;
177 [label="X[3] <= 0.701\ngini = 0.058\nsamples = 67\nvalue = [[2, 65]\n[65, 2]]"] ;
175 -> 177 ;
178 [label="X[3] <= 0.69\ngini = 0.375\nsamples = 4\nvalue = [[1, 3]\n[3, 1]]"] ;
177 -> 178 ;
179 [label="gini = 0.0\nsamples = 3\nvalue = [[0, 3]\n[3, 0]]"] ;
178 -> 179 ;
180 [label="gini = 0.0\nsamples = 1\nvalue = [[1, 0]\n[0, 1]]"] ;
178 -> 180 ;
181 [label="X[2] <= 0.262\ngini = 0.031\nsamples = 63\nvalue = [[1, 62]\n[62, 1]]"] ;
177 -> 181 ;
182 [label="X[2] <= 0.261\ngini = 0.1\nsamples = 19\nvalue = [[1, 18]\n[18, 1]]"] ;
181 -> 182 ;
183 [label="gini = 0.0\nsamples = 18\nvalue = [[0, 18]\n[18, 0]]"] ;
182 -> 183 ;
184 [label="gini = 0.0\nsamples = 1\nvalue = [[1, 0]\n[0, 1]]"] ;
182 -> 184 ;
185 [label="gini = 0.0\nsamples = 44\nvalue = [[0, 44]\n[44, 0]]"] ;
181 -> 185 ;
186 [label="gini = 0.0\nsamples = 1\nvalue = [[1, 0]\n[0, 1]]"] ;
168 -> 186 ;
187 [label="gini = 0.0\nsamples = 48\nvalue = [[0, 48]\n[48, 0]]"] ;
167 -> 187 ;
188 [label="X[3] <= 0.973\ngini = 0.165\nsamples = 22\nvalue = [[2, 20]\n[20, 2]]"] ;
124 -> 188 ;
189 [label="gini = 0.0\nsamples = 1\nvalue = [[1, 0]\n[0, 1]]"] ;
188 -> 189 ;
190 [label="X[2] <= 0.33\ngini = 0.091\nsamples = 21\nvalue = [[1, 20]\n[20, 1]]"] ;
188 -> 190 ;
191 [label="gini = 0.0\nsamples = 15\nvalue = [[0, 15]\n[15, 0]]"] ;
190 -> 191 ;
192 [label="X[2] <= 0.345\ngini = 0.278\nsamples = 6\nvalue = [[1, 5]\n[5, 1]]"] ;
190 -> 192 ;
193 [label="gini = 0.0\nsamples = 1\nvalue = [[1, 0]\n[0, 1]]"] ;
192 -> 193 ;
194 [label="gini = 0.0\nsamples = 5\nvalue = [[0, 5]\n[5, 0]]"] ;
192 -> 194 ;
195 [label="X[2] <= 0.406\ngini = 0.313\nsamples = 36\nvalue = [[7, 29]\n[29, 7]]"] ;
75 -> 195 ;
196 [label="gini = 0.0\nsamples = 2\nvalue = [[2, 0]\n[0, 2]]"] ;
195 -> 196 ;
197 [label="X[3] <= 0.66\ngini = 0.251\nsamples = 34\nvalue = [[5, 29]\n[29, 5]]"] ;
195 -> 197 ;
198 [label="gini = 0.0\nsamples = 9\nvalue = [[0, 9]\n[9, 0]]"] ;
197 -> 198 ;
199 [label="X[3] <= 0.665\ngini = 0.32\nsamples = 25\nvalue = [[5, 20]\n[20, 5]]"] ;
197 -> 199 ;
200 [label="gini = 0.0\nsamples = 1\nvalue = [[1, 0]\n[0, 1]]"] ;
199 -> 200 ;
201 [label="X[2] <= 0.44\ngini = 0.278\nsamples = 24\nvalue = [[4, 20]\n[20, 4]]"] ;
199 -> 201 ;
202 [label="gini = 0.0\nsamples = 8\nvalue = [[0, 8]\n[8, 0]]"] ;
201 -> 202 ;
203 [label="X[2] <= 0.445\ngini = 0.375\nsamples = 16\nvalue = [[4, 12]\n[12, 4]]"] ;
201 -> 203 ;
204 [label="gini = 0.0\nsamples = 1\nvalue = [[1, 0]\n[0, 1]]"] ;
203 -> 204 ;
205 [label="X[2] <= 0.461\ngini = 0.32\nsamples = 15\nvalue = [[3, 12]\n[12, 3]]"] ;
203 -> 205 ;
206 [label="X[2] <= 0.455\ngini = 0.48\nsamples = 5\nvalue = [[2, 3]\n[3, 2]]"] ;
205 -> 206 ;
207 [label="gini = 0.0\nsamples = 3\nvalue = [[0, 3]\n[3, 0]]"] ;
206 -> 207 ;
208 [label="gini = 0.0\nsamples = 2\nvalue = [[2, 0]\n[0, 2]]"] ;
206 -> 208 ;
209 [label="X[2] <= 0.486\ngini = 0.18\nsamples = 10\nvalue = [[1, 9]\n[9, 1]]"] ;
205 -> 209 ;
210 [label="gini = 0.0\nsamples = 6\nvalue = [[0, 6]\n[6, 0]]"] ;
209 -> 210 ;
211 [label="X[2] <= 0.489\ngini = 0.375\nsamples = 4\nvalue = [[1, 3]\n[3, 1]]"] ;
209 -> 211 ;
212 [label="gini = 0.0\nsamples = 1\nvalue = [[1, 0]\n[0, 1]]"] ;
211 -> 212 ;
213 [label="gini = 0.0\nsamples = 3\nvalue = [[0, 3]\n[3, 0]]"] ;
211 -> 213 ;
214 [label="X[3] <= 0.152\ngini = 0.42\nsamples = 27757\nvalue = [[8344, 19413]\n[19413, 8344]]"] ;
0 -> 214 [labeldistance=2.5, labelangle=-45, headlabel="False"] ;
215 [label="X[3] <= 0.103\ngini = 0.264\nsamples = 1240\nvalue = [[1046, 194]\n[194, 1046]]"] ;
214 -> 215 ;
216 [label="X[4] <= 0.533\ngini = 0.058\nsamples = 597\nvalue = [[579, 18]\n[18, 579]]"] ;
215 -> 216 ;
217 [label="X[1] <= 0.003\ngini = 0.017\nsamples = 572\nvalue = [[567, 5]\n[5, 567]]"] ;
216 -> 217 ;
218 [label="X[1] <= 0.003\ngini = 0.219\nsamples = 8\nvalue = [[7, 1]\n[1, 7]]"] ;
217 -> 218 ;
219 [label="gini = 0.0\nsamples = 7\nvalue = [[7, 0]\n[0, 7]]"] ;
218 -> 219 ;
220 [label="gini = 0.0\nsamples = 1\nvalue = [[0, 1]\n[1, 0]]"] ;
218 -> 220 ;
221 [label="X[2] <= 0.459\ngini = 0.014\nsamples = 564\nvalue = [[560, 4]\n[4, 560]]"] ;
217 -> 221 ;
222 [label="X[3] <= 0.097\ngini = 0.011\nsamples = 547\nvalue = [[544, 3]\n[3, 544]]"] ;
221 -> 222 ;
223 [label="X[1] <= 0.003\ngini = 0.004\nsamples = 486\nvalue = [[485, 1]\n[1, 485]]"] ;
222 -> 223 ;
224 [label="X[1] <= 0.003\ngini = 0.022\nsamples = 91\nvalue = [[90, 1]\n[1, 90]]"] ;
223 -> 224 ;
225 [label="gini = 0.0\nsamples = 66\nvalue = [[66, 0]\n[0, 66]]"] ;
224 -> 225 ;
226 [label="X[2] <= 0.209\ngini = 0.077\nsamples = 25\nvalue = [[24, 1]\n[1, 24]]"] ;
224 -> 226 ;
227 [label="gini = 0.0\nsamples = 13\nvalue = [[13, 0]\n[0, 13]]"] ;
226 -> 227 ;
228 [label="X[2] <= 0.219\ngini = 0.153\nsamples = 12\nvalue = [[11, 1]\n[1, 11]]"] ;
226 -> 228 ;
229 [label="gini = 0.0\nsamples = 1\nvalue = [[0, 1]\n[1, 0]]"] ;
228 -> 229 ;
230 [label="gini = 0.0\nsamples = 11\nvalue = [[11, 0]\n[0, 11]]"] ;
228 -> 230 ;
231 [label="gini = 0.0\nsamples = 395\nvalue = [[395, 0]\n[0, 395]]"] ;
223 -> 231 ;
232 [label="X[3] <= 0.097\ngini = 0.063\nsamples = 61\nvalue = [[59, 2]\n[2, 59]]"] ;
222 -> 232 ;
233 [label="gini = 0.0\nsamples = 1\nvalue = [[0, 1]\n[1, 0]]"] ;
232 -> 233 ;
234 [label="X[3] <= 0.098\ngini = 0.033\nsamples = 60\nvalue = [[59, 1]\n[1, 59]]"] ;
232 -> 234 ;
235 [label="X[3] <= 0.097\ngini = 0.278\nsamples = 6\nvalue = [[5, 1]\n[1, 5]]"] ;
234 -> 235 ;
236 [label="gini = 0.0\nsamples = 5\nvalue = [[5, 0]\n[0, 5]]"] ;
235 -> 236 ;
237 [label="gini = 0.0\nsamples = 1\nvalue = [[0, 1]\n[1, 0]]"] ;
235 -> 237 ;
238 [label="gini = 0.0\nsamples = 54\nvalue = [[54, 0]\n[0, 54]]"] ;
234 -> 238 ;
239 [label="X[1] <= 0.003\ngini = 0.111\nsamples = 17\nvalue = [[16, 1]\n[1, 16]]"] ;
221 -> 239 ;
240 [label="gini = 0.0\nsamples = 1\nvalue = [[0, 1]\n[1, 0]]"] ;
239 -> 240 ;
241 [label="gini = 0.0\nsamples = 16\nvalue = [[16, 0]\n[0, 16]]"] ;
239 -> 241 ;
242 [label="X[3] <= 0.05\ngini = 0.499\nsamples = 25\nvalue = [[12, 13]\n[13, 12]]"] ;
216 -> 242 ;
243 [label="gini = 0.0\nsamples = 4\nvalue = [[0, 4]\n[4, 0]]"] ;
242 -> 243 ;
244 [label="X[4] <= 0.533\ngini = 0.49\nsamples = 21\nvalue = [[12, 9]\n[9, 12]]"] ;
242 -> 244 ;
245 [label="X[2] <= 0.323\ngini = 0.465\nsamples = 19\nvalue = [[12, 7]\n[7, 12]]"] ;
244 -> 245 ;
246 [label="X[2] <= 0.136\ngini = 0.444\nsamples = 18\nvalue = [[12, 6]\n[6, 12]]"] ;
245 -> 246 ;
247 [label="gini = 0.0\nsamples = 2\nvalue = [[2, 0]\n[0, 2]]"] ;
246 -> 247 ;
248 [label="X[2] <= 0.152\ngini = 0.469\nsamples = 16\nvalue = [[10, 6]\n[6, 10]]"] ;
246 -> 248 ;
249 [label="gini = 0.0\nsamples = 2\nvalue = [[0, 2]\n[2, 0]]"] ;
248 -> 249 ;
250 [label="X[3] <= 0.071\ngini = 0.408\nsamples = 14\nvalue = [[10, 4]\n[4, 10]]"] ;
248 -> 250 ;
251 [label="gini = 0.0\nsamples = 4\nvalue = [[4, 0]\n[0, 4]]"] ;
250 -> 251 ;
252 [label="X[2] <= 0.215\ngini = 0.48\nsamples = 10\nvalue = [[6, 4]\n[4, 6]]"] ;
250 -> 252 ;
253 [label="gini = 0.0\nsamples = 3\nvalue = [[3, 0]\n[0, 3]]"] ;
252 -> 253 ;
254 [label="X[2] <= 0.274\ngini = 0.49\nsamples = 7\nvalue = [[3, 4]\n[4, 3]]"] ;
252 -> 254 ;
255 [label="X[2] <= 0.241\ngini = 0.32\nsamples = 5\nvalue = [[1, 4]\n[4, 1]]"] ;
254 -> 255 ;
256 [label="X[2] <= 0.231\ngini = 0.5\nsamples = 2\nvalue = [[1, 1]\n[1, 1]]"] ;
255 -> 256 ;
257 [label="gini = 0.0\nsamples = 1\nvalue = [[0, 1]\n[1, 0]]"] ;
256 -> 257 ;
258 [label="gini = 0.0\nsamples = 1\nvalue = [[1, 0]\n[0, 1]]"] ;
256 -> 258 ;
259 [label="gini = 0.0\nsamples = 3\nvalue = [[0, 3]\n[3, 0]]"] ;
255 -> 259 ;
260 [label="gini = 0.0\nsamples = 2\nvalue = [[2, 0]\n[0, 2]]"] ;
254 -> 260 ;
261 [label="gini = 0.0\nsamples = 1\nvalue = [[0, 1]\n[1, 0]]"] ;
245 -> 261 ;
262 [label="gini = 0.0\nsamples = 2\nvalue = [[0, 2]\n[2, 0]]"] ;
244 -> 262 ;
263 [label="X[1] <= 0.003\ngini = 0.398\nsamples = 643\nvalue = [[467, 176]\n[176, 467]]"] ;
215 -> 263 ;
264 [label="X[4] <= 0.53\ngini = 0.497\nsamples = 48\nvalue = [[22, 26]\n[26, 22]]"] ;
263 -> 264 ;
265 [label="gini = 0.0\nsamples = 4\nvalue = [[0, 4]\n[4, 0]]"] ;
264 -> 265 ;
266 [label="X[2] <= 0.389\ngini = 0.5\nsamples = 44\nvalue = [[22, 22]\n[22, 22]]"] ;
264 -> 266 ;
267 [label="X[2] <= 0.335\ngini = 0.499\nsamples = 42\nvalue = [[20, 22]\n[22, 20]]"] ;
266 -> 267 ;
268 [label="X[3] <= 0.135\ngini = 0.5\nsamples = 39\nvalue = [[20, 19]\n[19, 20]]"] ;
267 -> 268 ;
269 [label="X[3] <= 0.103\ngini = 0.477\nsamples = 28\nvalue = [[17, 11]\n[11, 17]]"] ;
268 -> 269 ;
270 [label="gini = 0.0\nsamples = 2\nvalue = [[0, 2]\n[2, 0]]"] ;
269 -> 270 ;
271 [label="X[2] <= 0.093\ngini = 0.453\nsamples = 26\nvalue = [[17, 9]\n[9, 17]]"] ;
269 -> 271 ;
272 [label="gini = 0.0\nsamples = 1\nvalue = [[0, 1]\n[1, 0]]"] ;
271 -> 272 ;
273 [label="X[3] <= 0.122\ngini = 0.435\nsamples = 25\nvalue = [[17, 8]\n[8, 17]]"] ;
271 -> 273 ;
274 [label="X[3] <= 0.109\ngini = 0.337\nsamples = 14\nvalue = [[11, 3]\n[3, 11]]"] ;
273 -> 274 ;
275 [label="X[2] <= 0.264\ngini = 0.49\nsamples = 7\nvalue = [[4, 3]\n[3, 4]]"] ;
274 -> 275 ;
276 [label="X[3] <= 0.107\ngini = 0.444\nsamples = 6\nvalue = [[4, 2]\n[2, 4]]"] ;
275 -> 276 ;
277 [label="X[2] <= 0.124\ngini = 0.5\nsamples = 4\nvalue = [[2, 2]\n[2, 2]]"] ;
276 -> 277 ;
278 [label="gini = 0.0\nsamples = 1\nvalue = [[1, 0]\n[0, 1]]"] ;
277 -> 278 ;
279 [label="X[3] <= 0.104\ngini = 0.444\nsamples = 3\nvalue = [[1, 2]\n[2, 1]]"] ;
277 -> 279 ;
280 [label="gini = 0.0\nsamples = 1\nvalue = [[1, 0]\n[0, 1]]"] ;
279 -> 280 ;
281 [label="gini = 0.0\nsamples = 2\nvalue = [[0, 2]\n[2, 0]]"] ;
279 -> 281 ;
282 [label="gini = 0.0\nsamples = 2\nvalue = [[2, 0]\n[0, 2]]"] ;
276 -> 282 ;
283 [label="gini = 0.0\nsamples = 1\nvalue = [[0, 1]\n[1, 0]]"] ;
275 -> 283 ;
284 [label="gini = 0.0\nsamples = 7\nvalue = [[7, 0]\n[0, 7]]"] ;
274 -> 284 ;
285 [label="X[3] <= 0.124\ngini = 0.496\nsamples = 11\nvalue = [[6, 5]\n[5, 6]]"] ;
273 -> 285 ;
286 [label="gini = 0.0\nsamples = 2\nvalue = [[0, 2]\n[2, 0]]"] ;
285 -> 286 ;
287 [label="X[2] <= 0.139\ngini = 0.444\nsamples = 9\nvalue = [[6, 3]\n[3, 6]]"] ;
285 -> 287 ;
288 [label="gini = 0.0\nsamples = 1\nvalue = [[0, 1]\n[1, 0]]"] ;
287 -> 288 ;
289 [label="X[2] <= 0.222\ngini = 0.375\nsamples = 8\nvalue = [[6, 2]\n[2, 6]]"] ;
287 -> 289 ;
290 [label="gini = 0.0\nsamples = 4\nvalue = [[4, 0]\n[0, 4]]"] ;
289 -> 290 ;
291 [label="X[2] <= 0.254\ngini = 0.5\nsamples = 4\nvalue = [[2, 2]\n[2, 2]]"] ;
289 -> 291 ;
292 [label="gini = 0.0\nsamples = 2\nvalue = [[0, 2]\n[2, 0]]"] ;
291 -> 292 ;
293 [label="gini = 0.0\nsamples = 2\nvalue = [[2, 0]\n[0, 2]]"] ;
291 -> 293 ;
294 [label="X[3] <= 0.15\ngini = 0.397\nsamples = 11\nvalue = [[3, 8]\n[8, 3]]"] ;
268 -> 294 ;
295 [label="X[4] <= 0.533\ngini = 0.32\nsamples = 10\nvalue = [[2, 8]\n[8, 2]]"] ;
294 -> 295 ;
296 [label="X[2] <= 0.21\ngini = 0.444\nsamples = 6\nvalue = [[2, 4]\n[4, 2]]"] ;
295 -> 296 ;
297 [label="X[3] <= 0.14\ngini = 0.32\nsamples = 5\nvalue = [[1, 4]\n[4, 1]]"] ;
296 -> 297 ;
298 [label="gini = 0.0\nsamples = 3\nvalue = [[0, 3]\n[3, 0]]"] ;
297 -> 298 ;
299 [label="X[3] <= 0.146\ngini = 0.5\nsamples = 2\nvalue = [[1, 1]\n[1, 1]]"] ;
297 -> 299 ;
300 [label="gini = 0.0\nsamples = 1\nvalue = [[1, 0]\n[0, 1]]"] ;
299 -> 300 ;
301 [label="gini = 0.0\nsamples = 1\nvalue = [[0, 1]\n[1, 0]]"] ;
299 -> 301 ;
302 [label="gini = 0.0\nsamples = 1\nvalue = [[1, 0]\n[0, 1]]"] ;
296 -> 302 ;
303 [label="gini = 0.0\nsamples = 4\nvalue = [[0, 4]\n[4, 0]]"] ;
295 -> 303 ;
304 [label="gini = 0.0\nsamples = 1\nvalue = [[1, 0]\n[0, 1]]"] ;
294 -> 304 ;
305 [label="gini = 0.0\nsamples = 3\nvalue = [[0, 3]\n[3, 0]]"] ;
267 -> 305 ;
306 [label="gini = 0.0\nsamples = 2\nvalue = [[2, 0]\n[0, 2]]"] ;
266 -> 306 ;
307 [label="X[3] <= 0.12\ngini = 0.377\nsamples = 595\nvalue = [[445, 150]\n[150, 445]]"] ;
263 -> 307 ;
308 [label="X[3] <= 0.103\ngini = 0.28\nsamples = 190\nvalue = [[158, 32]\n[32, 158]]"] ;
307 -> 308 ;
309 [label="gini = 0.0\nsamples = 2\nvalue = [[0, 2]\n[2, 0]]"] ;
308 -> 309 ;
310 [label="X[1] <= 0.01\ngini = 0.268\nsamples = 188\nvalue = [[158, 30]\n[30, 158]]"] ;
308 -> 310 ;
311 [label="X[1] <= 0.009\ngini = 0.327\nsamples = 141\nvalue = [[112, 29]\n[29, 112]]"] ;
310 -> 311 ;
312 [label="X[0] <= 0.003\ngini = 0.313\nsamples = 139\nvalue = [[112, 27]\n[27, 112]]"] ;
311 -> 312 ;
313 [label="X[3] <= 0.107\ngini = 0.435\nsamples = 25\nvalue = [[17, 8]\n[8, 17]]"] ;
312 -> 313 ;
314 [label="X[1] <= 0.003\ngini = 0.444\nsamples = 9\nvalue = [[3, 6]\n[6, 3]]"] ;
313 -> 314 ;
315 [label="X[3] <= 0.105\ngini = 0.48\nsamples = 5\nvalue = [[3, 2]\n[2, 3]]"] ;
314 -> 315 ;
316 [label="gini = 0.0\nsamples = 1\nvalue = [[0, 1]\n[1, 0]]"] ;
315 -> 316 ;
317 [label="X[2] <= 0.311\ngini = 0.375\nsamples = 4\nvalue = [[3, 1]\n[1, 3]]"] ;
315 -> 317 ;
318 [label="gini = 0.0\nsamples = 2\nvalue = [[2, 0]\n[0, 2]]"] ;
317 -> 318 ;
319 [label="X[4] <= 0.525\ngini = 0.5\nsamples = 2\nvalue = [[1, 1]\n[1, 1]]"] ;
317 -> 319 ;
320 [label="gini = 0.0\nsamples = 1\nvalue = [[1, 0]\n[0, 1]]"] ;
319 -> 320 ;
321 [label="gini = 0.0\nsamples = 1\nvalue = [[0, 1]\n[1, 0]]"] ;
319 -> 321 ;
322 [label="gini = 0.0\nsamples = 4\nvalue = [[0, 4]\n[4, 0]]"] ;
314 -> 322 ;
323 [label="X[2] <= 0.126\ngini = 0.219\nsamples = 16\nvalue = [[14, 2]\n[2, 14]]"] ;
313 -> 323 ;
324 [label="X[2] <= 0.108\ngini = 0.5\nsamples = 2\nvalue = [[1, 1]\n[1, 1]]"] ;
323 -> 324 ;
325 [label="gini = 0.0\nsamples = 1\nvalue = [[1, 0]\n[0, 1]]"] ;
324 -> 325 ;
326 [label="gini = 0.0\nsamples = 1\nvalue = [[0, 1]\n[1, 0]]"] ;
324 -> 326 ;
327 [label="X[2] <= 0.275\ngini = 0.133\nsamples = 14\nvalue = [[13, 1]\n[1, 13]]"] ;
323 -> 327 ;
328 [label="gini = 0.0\nsamples = 11\nvalue = [[11, 0]\n[0, 11]]"] ;
327 -> 328 ;
329 [label="X[3] <= 0.116\ngini = 0.444\nsamples = 3\nvalue = [[2, 1]\n[1, 2]]"] ;
327 -> 329 ;
330 [label="gini = 0.0\nsamples = 1\nvalue = [[0, 1]\n[1, 0]]"] ;
329 -> 330 ;
331 [label="gini = 0.0\nsamples = 2\nvalue = [[2, 0]\n[0, 2]]"] ;
329 -> 331 ;
332 [label="X[3] <= 0.113\ngini = 0.278\nsamples = 114\nvalue = [[95, 19]\n[19, 95]]"] ;
312 -> 332 ;
333 [label="X[2] <= 0.305\ngini = 0.168\nsamples = 65\nvalue = [[59, 6]\n[6, 59]]"] ;
332 -> 333 ;
334 [label="X[3] <= 0.103\ngini = 0.078\nsamples = 49\nvalue = [[47, 2]\n[2, 47]]"] ;
333 -> 334 ;
335 [label="gini = 0.0\nsamples = 1\nvalue = [[0, 1]\n[1, 0]]"] ;
334 -> 335 ;
336 [label="X[0] <= 0.006\ngini = 0.041\nsamples = 48\nvalue = [[47, 1]\n[1, 47]]"] ;
334 -> 336 ;
337 [label="gini = 0.0\nsamples = 37\nvalue = [[37, 0]\n[0, 37]]"] ;
336 -> 337 ;
338 [label="X[0] <= 0.006\ngini = 0.165\nsamples = 11\nvalue = [[10, 1]\n[1, 10]]"] ;
336 -> 338 ;
339 [label="gini = 0.0\nsamples = 1\nvalue = [[0, 1]\n[1, 0]]"] ;
338 -> 339 ;
340 [label="gini = 0.0\nsamples = 10\nvalue = [[10, 0]\n[0, 10]]"] ;
338 -> 340 ;
341 [label="X[2] <= 0.319\ngini = 0.375\nsamples = 16\nvalue = [[12, 4]\n[4, 12]]"] ;
333 -> 341 ;
342 [label="X[3] <= 0.11\ngini = 0.48\nsamples = 5\nvalue = [[2, 3]\n[3, 2]]"] ;
341 -> 342 ;
343 [label="gini = 0.0\nsamples = 3\nvalue = [[0, 3]\n[3, 0]]"] ;
342 -> 343 ;
344 [label="gini = 0.0\nsamples = 2\nvalue = [[2, 0]\n[0, 2]]"] ;
342 -> 344 ;
345 [label="X[3] <= 0.105\ngini = 0.165\nsamples = 11\nvalue = [[10, 1]\n[1, 10]]"] ;
341 -> 345 ;
346 [label="X[2] <= 0.358\ngini = 0.5\nsamples = 2\nvalue = [[1, 1]\n[1, 1]]"] ;
345 -> 346 ;
347 [label="gini = 0.0\nsamples = 1\nvalue = [[1, 0]\n[0, 1]]"] ;
346 -> 347 ;
348 [label="gini = 0.0\nsamples = 1\nvalue = [[0, 1]\n[1, 0]]"] ;
346 -> 348 ;
349 [label="gini = 0.0\nsamples = 9\nvalue = [[9, 0]\n[0, 9]]"] ;
345 -> 349 ;
350 [label="X[3] <= 0.116\ngini = 0.39\nsamples = 49\nvalue = [[36, 13]\n[13, 36]]"] ;
332 -> 350 ;
351 [label="X[3] <= 0.116\ngini = 0.473\nsamples = 26\nvalue = [[16, 10]\n[10, 16]]"] ;
350 -> 351 ;
352 [label="X[3] <= 0.115\ngini = 0.423\nsamples = 23\nvalue = [[16, 7]\n[7, 16]]"] ;
351 -> 352 ;
353 [label="X[4] <= 0.44\ngini = 0.475\nsamples = 18\nvalue = [[11, 7]\n[7, 11]]"] ;
352 -> 353 ;
354 [label="gini = 0.0\nsamples = 2\nvalue = [[0, 2]\n[2, 0]]"] ;
353 -> 354 ;
355 [label="X[1] <= 0.004\ngini = 0.43\nsamples = 16\nvalue = [[11, 5]\n[5, 11]]"] ;
353 -> 355 ;
356 [label="X[2] <= 0.128\ngini = 0.48\nsamples = 5\nvalue = [[2, 3]\n[3, 2]]"] ;
355 -> 356 ;
357 [label="X[0] <= 0.003\ngini = 0.444\nsamples = 3\nvalue = [[2, 1]\n[1, 2]]"] ;
356 -> 357 ;
358 [label="gini = 0.0\nsamples = 1\nvalue = [[0, 1]\n[1, 0]]"] ;
357 -> 358 ;
359 [label="gini = 0.0\nsamples = 2\nvalue = [[2, 0]\n[0, 2]]"] ;
357 -> 359 ;
360 [label="gini = 0.0\nsamples = 2\nvalue = [[0, 2]\n[2, 0]]"] ;
356 -> 360 ;
361 [label="X[3] <= 0.113\ngini = 0.298\nsamples = 11\nvalue = [[9, 2]\n[2, 9]]"] ;
355 -> 361 ;
362 [label="gini = 0.0\nsamples = 1\nvalue = [[0, 1]\n[1, 0]]"] ;
361 -> 362 ;
363 [label="X[3] <= 0.115\ngini = 0.18\nsamples = 10\nvalue = [[9, 1]\n[1, 9]]"] ;
361 -> 363 ;
364 [label="gini = 0.0\nsamples = 9\nvalue = [[9, 0]\n[0, 9]]"] ;
363 -> 364 ;
365 [label="gini = 0.0\nsamples = 1\nvalue = [[0, 1]\n[1, 0]]"] ;
363 -> 365 ;
366 [label="gini = 0.0\nsamples = 5\nvalue = [[5, 0]\n[0, 5]]"] ;
352 -> 366 ;
367 [label="gini = 0.0\nsamples = 3\nvalue = [[0, 3]\n[3, 0]]"] ;
351 -> 367 ;
368 [label="X[2] <= 0.116\ngini = 0.227\nsamples = 23\nvalue = [[20, 3]\n[3, 20]]"] ;
350 -> 368 ;
369 [label="X[0] <= 0.004\ngini = 0.5\nsamples = 2\nvalue = [[1, 1]\n[1, 1]]"] ;
368 -> 369 ;
370 [label="gini = 0.0\nsamples = 1\nvalue = [[0, 1]\n[1, 0]]"] ;
369 -> 370 ;
371 [label="gini = 0.0\nsamples = 1\nvalue = [[1, 0]\n[0, 1]]"] ;
369 -> 371 ;
372 [label="X[3] <= 0.117\ngini = 0.172\nsamples = 21\nvalue = [[19, 2]\n[2, 19]]"] ;
368 -> 372 ;
373 [label="gini = 0.0\nsamples = 9\nvalue = [[9, 0]\n[0, 9]]"] ;
372 -> 373 ;
374 [label="X[3] <= 0.118\ngini = 0.278\nsamples = 12\nvalue = [[10, 2]\n[2, 10]]"] ;
372 -> 374 ;
375 [label="gini = 0.0\nsamples = 1\nvalue = [[0, 1]\n[1, 0]]"] ;
374 -> 375 ;
376 [label="X[2] <= 0.28\ngini = 0.165\nsamples = 11\nvalue = [[10, 1]\n[1, 10]]"] ;
374 -> 376 ;
377 [label="gini = 0.0\nsamples = 9\nvalue = [[9, 0]\n[0, 9]]"] ;
376 -> 377 ;
378 [label="X[2] <= 0.311\ngini = 0.5\nsamples = 2\nvalue = [[1, 1]\n[1, 1]]"] ;
376 -> 378 ;
379 [label="gini = 0.0\nsamples = 1\nvalue = [[0, 1]\n[1, 0]]"] ;
378 -> 379 ;
380 [label="gini = 0.0\nsamples = 1\nvalue = [[1, 0]\n[0, 1]]"] ;
378 -> 380 ;
381 [label="gini = 0.0\nsamples = 2\nvalue = [[0, 2]\n[2, 0]]"] ;
311 -> 381 ;
382 [label="X[3] <= 0.119\ngini = 0.042\nsamples = 47\nvalue = [[46, 1]\n[1, 46]]"] ;
310 -> 382 ;
383 [label="gini = 0.0\nsamples = 43\nvalue = [[43, 0]\n[0, 43]]"] ;
382 -> 383 ;
384 [label="X[3] <= 0.12\ngini = 0.375\nsamples = 4\nvalue = [[3, 1]\n[1, 3]]"] ;
382 -> 384 ;
385 [label="gini = 0.0\nsamples = 1\nvalue = [[0, 1]\n[1, 0]]"] ;
384 -> 385 ;
386 [label="gini = 0.0\nsamples = 3\nvalue = [[3, 0]\n[0, 3]]"] ;
384 -> 386 ;
387 [label="X[2] <= 0.07\ngini = 0.413\nsamples = 405\nvalue = [[287, 118]\n[118, 287]]"] ;
307 -> 387 ;
388 [label="X[1] <= 0.007\ngini = 0.32\nsamples = 5\nvalue = [[1, 4]\n[4, 1]]"] ;
387 -> 388 ;
389 [label="gini = 0.0\nsamples = 4\nvalue = [[0, 4]\n[4, 0]]"] ;
388 -> 389 ;
390 [label="gini = 0.0\nsamples = 1\nvalue = [[1, 0]\n[0, 1]]"] ;
388 -> 390 ;
391 [label="X[3] <= 0.121\ngini = 0.408\nsamples = 400\nvalue = [[286, 114]\n[114, 286]]"] ;
387 -> 391 ;
392 [label="X[1] <= 0.009\ngini = 0.486\nsamples = 12\nvalue = [[5, 7]\n[7, 5]]"] ;
391 -> 392 ;
393 [label="X[2] <= 0.216\ngini = 0.42\nsamples = 10\nvalue = [[3, 7]\n[7, 3]]"] ;
392 -> 393 ;
394 [label="X[0] <= 0.004\ngini = 0.48\nsamples = 5\nvalue = [[3, 2]\n[2, 3]]"] ;
393 -> 394 ;
395 [label="gini = 0.0\nsamples = 1\nvalue = [[0, 1]\n[1, 0]]"] ;
394 -> 395 ;
396 [label="X[3] <= 0.12\ngini = 0.375\nsamples = 4\nvalue = [[3, 1]\n[1, 3]]"] ;
394 -> 396 ;
397 [label="gini = 0.0\nsamples = 1\nvalue = [[0, 1]\n[1, 0]]"] ;
396 -> 397 ;
398 [label="gini = 0.0\nsamples = 3\nvalue = [[3, 0]\n[0, 3]]"] ;
396 -> 398 ;
399 [label="gini = 0.0\nsamples = 5\nvalue = [[0, 5]\n[5, 0]]"] ;
393 -> 399 ;
400 [label="gini = 0.0\nsamples = 2\nvalue = [[2, 0]\n[0, 2]]"] ;
392 -> 400 ;
401 [label="X[3] <= 0.123\ngini = 0.399\nsamples = 388\nvalue = [[281, 107]\n[107, 281]]"] ;
391 -> 401 ;
402 [label="gini = 0.0\nsamples = 11\nvalue = [[11, 0]\n[0, 11]]"] ;
401 -> 402 ;
403 [label="X[3] <= 0.123\ngini = 0.407\nsamples = 377\nvalue = [[270, 107]\n[107, 270]]"] ;
401 -> 403 ;
404 [label="gini = 0.0\nsamples = 2\nvalue = [[0, 2]\n[2, 0]]"] ;
403 -> 404 ;
405 [label="X[2] <= 0.433\ngini = 0.403\nsamples = 375\nvalue = [[270, 105]\n[105, 270]]"] ;
403 -> 405 ;
406 [label="X[3] <= 0.15\ngini = 0.412\nsamples = 359\nvalue = [[255, 104]\n[104, 255]]"] ;
405 -> 406 ;
407 [label="X[0] <= 0.011\ngini = 0.421\nsamples = 339\nvalue = [[237, 102]\n[102, 237]]"] ;
406 -> 407 ;
408 [label="X[3] <= 0.124\ngini = 0.402\nsamples = 291\nvalue = [[210, 81]\n[81, 210]]"] ;
407 -> 408 ;
409 [label="gini = 0.0\nsamples = 9\nvalue = [[9, 0]\n[0, 9]]"] ;
408 -> 409 ;
410 [label="X[3] <= 0.124\ngini = 0.409\nsamples = 282\nvalue = [[201, 81]\n[81, 201]]"] ;
408 -> 410 ;
411 [label="gini = 0.0\nsamples = 1\nvalue = [[0, 1]\n[1, 0]]"] ;
410 -> 411 ;
412 [label="X[3] <= 0.15\ngini = 0.407\nsamples = 281\nvalue = [[201, 80]\n[80, 201]]"] ;
410 -> 412 ;
413 [label="X[2] <= 0.125\ngini = 0.405\nsamples = 280\nvalue = [[201, 79]\n[79, 201]]"] ;
412 -> 413 ;
414 [label="X[3] <= 0.149\ngini = 0.252\nsamples = 27\nvalue = [[23, 4]\n[4, 23]]"] ;
413 -> 414 ;
415 [label="X[2] <= 0.094\ngini = 0.204\nsamples = 26\nvalue = [[23, 3]\n[3, 23]]"] ;
414 -> 415 ;
416 [label="X[0] <= 0.004\ngini = 0.5\nsamples = 4\nvalue = [[2, 2]\n[2, 2]]"] ;
415 -> 416 ;
417 [label="gini = 0.0\nsamples = 2\nvalue = [[2, 0]\n[0, 2]]"] ;
416 -> 417 ;
418 [label="gini = 0.0\nsamples = 2\nvalue = [[0, 2]\n[2, 0]]"] ;
416 -> 418 ;
419 [label="X[4] <= 0.461\ngini = 0.087\nsamples = 22\nvalue = [[21, 1]\n[1, 21]]"] ;
415 -> 419 ;
420 [label="X[2] <= 0.107\ngini = 0.32\nsamples = 5\nvalue = [[4, 1]\n[1, 4]]"] ;
419 -> 420 ;
421 [label="gini = 0.0\nsamples = 1\nvalue = [[0, 1]\n[1, 0]]"] ;
420 -> 421 ;
422 [label="gini = 0.0\nsamples = 4\nvalue = [[4, 0]\n[0, 4]]"] ;
420 -> 422 ;
423 [label="gini = 0.0\nsamples = 17\nvalue = [[17, 0]\n[0, 17]]"] ;
419 -> 423 ;
424 [label="gini = 0.0\nsamples = 1\nvalue = [[0, 1]\n[1, 0]]"] ;
414 -> 424 ;
425 [label="X[2] <= 0.136\ngini = 0.417\nsamples = 253\nvalue = [[178, 75]\n[75, 178]]"] ;
413 -> 425 ;
426 [label="X[2] <= 0.129\ngini = 0.498\nsamples = 15\nvalue = [[7, 8]\n[8, 7]]"] ;
425 -> 426 ;
427 [label="X[1] <= 0.003\ngini = 0.444\nsamples = 9\nvalue = [[6, 3]\n[3, 6]]"] ;
426 -> 427 ;
428 [label="gini = 0.0\nsamples = 1\nvalue = [[0, 1]\n[1, 0]]"] ;
427 -> 428 ;
429 [label="X[2] <= 0.127\ngini = 0.375\nsamples = 8\nvalue = [[6, 2]\n[2, 6]]"] ;
427 -> 429 ;
430 [label="gini = 0.0\nsamples = 3\nvalue = [[3, 0]\n[0, 3]]"] ;
429 -> 430 ;
431 [label="X[2] <= 0.128\ngini = 0.48\nsamples = 5\nvalue = [[3, 2]\n[2, 3]]"] ;
429 -> 431 ;
432 [label="gini = 0.0\nsamples = 2\nvalue = [[0, 2]\n[2, 0]]"] ;
431 -> 432 ;
433 [label="gini = 0.0\nsamples = 3\nvalue = [[3, 0]\n[0, 3]]"] ;
431 -> 433 ;
434 [label="X[4] <= 0.439\ngini = 0.278\nsamples = 6\nvalue = [[1, 5]\n[5, 1]]"] ;
426 -> 434 ;
435 [label="X[3] <= 0.13\ngini = 0.5\nsamples = 2\nvalue = [[1, 1]\n[1, 1]]"] ;
434 -> 435 ;
436 [label="gini = 0.0\nsamples = 1\nvalue = [[0, 1]\n[1, 0]]"] ;
435 -> 436 ;
437 [label="gini = 0.0\nsamples = 1\nvalue = [[1, 0]\n[0, 1]]"] ;
435 -> 437 ;
438 [label="gini = 0.0\nsamples = 4\nvalue = [[0, 4]\n[4, 0]]"] ;
434 -> 438 ;
439 [label="X[3] <= 0.125\ngini = 0.405\nsamples = 238\nvalue = [[171, 67]\n[67, 171]]"] ;
425 -> 439 ;
440 [label="X[2] <= 0.179\ngini = 0.494\nsamples = 9\nvalue = [[4, 5]\n[5, 4]]"] ;
439 -> 440 ;
441 [label="gini = 0.0\nsamples = 3\nvalue = [[0, 3]\n[3, 0]]"] ;
440 -> 441 ;
442 [label="X[2] <= 0.276\ngini = 0.444\nsamples = 6\nvalue = [[4, 2]\n[2, 4]]"] ;
440 -> 442 ;
443 [label="X[2] <= 0.207\ngini = 0.32\nsamples = 5\nvalue = [[4, 1]\n[1, 4]]"] ;
442 -> 443 ;
444 [label="X[1] <= 0.006\ngini = 0.5\nsamples = 2\nvalue = [[1, 1]\n[1, 1]]"] ;
443 -> 444 ;
445 [label="gini = 0.0\nsamples = 1\nvalue = [[1, 0]\n[0, 1]]"] ;
444 -> 445 ;
446 [label="gini = 0.0\nsamples = 1\nvalue = [[0, 1]\n[1, 0]]"] ;
444 -> 446 ;
447 [label="gini = 0.0\nsamples = 3\nvalue = [[3, 0]\n[0, 3]]"] ;
443 -> 447 ;
448 [label="gini = 0.0\nsamples = 1\nvalue = [[0, 1]\n[1, 0]]"] ;
442 -> 448 ;
449 [label="X[3] <= 0.126\ngini = 0.395\nsamples = 229\nvalue = [[167, 62]\n[62, 167]]"] ;
439 -> 449 ;
450 [label="gini = 0.0\nsamples = 8\nvalue = [[8, 0]\n[0, 8]]"] ;
449 -> 450 ;
451 [label="X[2] <= 0.405\ngini = 0.404\nsamples = 221\nvalue = [[159, 62]\n[62, 159]]"] ;
449 -> 451 ;
452 [label="X[2] <= 0.368\ngini = 0.397\nsamples = 216\nvalue = [[157, 59]\n[59, 157]]"] ;
451 -> 452 ;
453 [label="X[3] <= 0.126\ngini = 0.408\nsamples = 207\nvalue = [[148, 59]\n[59, 148]]"] ;
452 -> 453 ;
454 [label="gini = 0.0\nsamples = 1\nvalue = [[0, 1]\n[1, 0]]"] ;
453 -> 454 ;
455 [label="X[2] <= 0.363\ngini = 0.405\nsamples = 206\nvalue = [[148, 58]\n[58, 148]]"] ;
453 -> 455 ;
456 [label="X[3] <= 0.127\ngini = 0.401\nsamples = 205\nvalue = [[148, 57]\n[57, 148]]"] ;
455 -> 456 ;
457 [label="gini = 0.0\nsamples = 4\nvalue = [[4, 0]\n[0, 4]]"] ;
456 -> 457 ;
458 [label="X[3] <= 0.127\ngini = 0.406\nsamples = 201\nvalue = [[144, 57]\n[57, 144]]"] ;
456 -> 458 ;
459 [label="gini = 0.0\nsamples = 1\nvalue = [[0, 1]\n[1, 0]]"] ;
458 -> 459 ;
460 [label="X[2] <= 0.359\ngini = 0.403\nsamples = 200\nvalue = [[144, 56]\n[56, 144]]"] ;
458 -> 460 ;
461 [label="X[2] <= 0.354\ngini = 0.408\nsamples = 196\nvalue = [[140, 56]\n[56, 140]]"] ;
460 -> 461 ;
462 [label="X[0] <= 0.008\ngini = 0.398\nsamples = 193\nvalue = [[140, 53]\n[53, 140]]"] ;
461 -> 462 ;
463 [label="X[3] <= 0.129\ngini = 0.379\nsamples = 169\nvalue = [[126, 43]\n[43, 126]]"] ;
462 -> 463 ;
464 [label="gini = 0.0\nsamples = 9\nvalue = [[9, 0]\n[0, 9]]"] ;
463 -> 464 ;
465 [label="X[3] <= 0.13\ngini = 0.393\nsamples = 160\nvalue = [[117, 43]\n[43, 117]]"] ;
463 -> 465 ;
466 [label="gini = 0.0\nsamples = 3\nvalue = [[0, 3]\n[3, 0]]"] ;
465 -> 466 ;
467 [label="X[1] <= 0.006\ngini = 0.38\nsamples = 157\nvalue = [[117, 40]\n[40, 117]]"] ;
465 -> 467 ;
468 [label="X[3] <= 0.149\ngini = 0.414\nsamples = 116\nvalue = [[82, 34]\n[34, 82]]"] ;
467 -> 468 ;
469 [label="X[4] <= 0.47\ngini = 0.398\nsamples = 113\nvalue = [[82, 31]\n[31, 82]]"] ;
468 -> 469 ;
470 [label="X[2] <= 0.296\ngini = 0.375\nsamples = 4\nvalue = [[1, 3]\n[3, 1]]"] ;
469 -> 470 ;
471 [label="gini = 0.0\nsamples = 3\nvalue = [[0, 3]\n[3, 0]]"] ;
470 -> 471 ;
472 [label="gini = 0.0\nsamples = 1\nvalue = [[1, 0]\n[0, 1]]"] ;
470 -> 472 ;
473 [label="X[2] <= 0.349\ngini = 0.382\nsamples = 109\nvalue = [[81, 28]\n[28, 81]]"] ;
469 -> 473 ;
474 [label="X[3] <= 0.143\ngini = 0.375\nsamples = 108\nvalue = [[81, 27]\n[27, 81]]"] ;
473 -> 474 ;
475 [label="X[3] <= 0.139\ngini = 0.329\nsamples = 77\nvalue = [[61, 16]\n[16, 61]]"] ;
474 -> 475 ;
476 [label="X[3] <= 0.136\ngini = 0.392\nsamples = 56\nvalue = [[41, 15]\n[15, 41]]"] ;
475 -> 476 ;
477 [label="X[2] <= 0.14\ngini = 0.272\nsamples = 37\nvalue = [[31, 6]\n[6, 31]]"] ;
476 -> 477 ;
478 [label="gini = 0.0\nsamples = 1\nvalue = [[0, 1]\n[1, 0]]"] ;
477 -> 478 ;
479 [label="X[0] <= 0.003\ngini = 0.239\nsamples = 36\nvalue = [[31, 5]\n[5, 31]]"] ;
477 -> 479 ;
480 [label="X[1] <= 0.003\ngini = 0.426\nsamples = 13\nvalue = [[9, 4]\n[4, 9]]"] ;
479 -> 480 ;
481 [label="X[2] <= 0.306\ngini = 0.298\nsamples = 11\nvalue = [[9, 2]\n[2, 9]]"] ;
480 -> 481 ;
482 [label="X[3] <= 0.132\ngini = 0.18\nsamples = 10\nvalue = [[9, 1]\n[1, 9]]"] ;
481 -> 482 ;
483 [label="X[1] <= 0.003\ngini = 0.5\nsamples = 2\nvalue = [[1, 1]\n[1, 1]]"] ;
482 -> 483 ;
484 [label="gini = 0.0\nsamples = 1\nvalue = [[0, 1]\n[1, 0]]"] ;
483 -> 484 ;
485 [label="gini = 0.0\nsamples = 1\nvalue = [[1, 0]\n[0, 1]]"] ;
483 -> 485 ;
486 [label="gini = 0.0\nsamples = 8\nvalue = [[8, 0]\n[0, 8]]"] ;
482 -> 486 ;
487 [label="gini = 0.0\nsamples = 1\nvalue = [[0, 1]\n[1, 0]]"] ;
481 -> 487 ;
488 [label="gini = 0.0\nsamples = 2\nvalue = [[0, 2]\n[2, 0]]"] ;
480 -> 488 ;
489 [label="X[3] <= 0.131\ngini = 0.083\nsamples = 23\nvalue = [[22, 1]\n[1, 22]]"] ;
479 -> 489 ;
490 [label="X[3] <= 0.13\ngini = 0.245\nsamples = 7\nvalue = [[6, 1]\n[1, 6]]"] ;
489 -> 490 ;
491 [label="gini = 0.0\nsamples = 6\nvalue = [[6, 0]\n[0, 6]]"] ;
490 -> 491 ;
492 [label="gini = 0.0\nsamples = 1\nvalue = [[0, 1]\n[1, 0]]"] ;
490 -> 492 ;
493 [label="gini = 0.0\nsamples = 16\nvalue = [[16, 0]\n[0, 16]]"] ;
489 -> 493 ;
494 [label="X[3] <= 0.137\ngini = 0.499\nsamples = 19\nvalue = [[10, 9]\n[9, 10]]"] ;
476 -> 494 ;
495 [label="X[0] <= 0.005\ngini = 0.408\nsamples = 7\nvalue = [[2, 5]\n[5, 2]]"] ;
494 -> 495 ;
496 [label="gini = 0.0\nsamples = 4\nvalue = [[0, 4]\n[4, 0]]"] ;
495 -> 496 ;
497 [label="X[2] <= 0.182\ngini = 0.444\nsamples = 3\nvalue = [[2, 1]\n[1, 2]]"] ;
495 -> 497 ;
498 [label="gini = 0.0\nsamples = 1\nvalue = [[0, 1]\n[1, 0]]"] ;
497 -> 498 ;
499 [label="gini = 0.0\nsamples = 2\nvalue = [[2, 0]\n[0, 2]]"] ;
497 -> 499 ;
500 [label="X[3] <= 0.138\ngini = 0.444\nsamples = 12\nvalue = [[8, 4]\n[4, 8]]"] ;
494 -> 500 ;
501 [label="gini = 0.0\nsamples = 4\nvalue = [[4, 0]\n[0, 4]]"] ;
500 -> 501 ;
502 [label="X[2] <= 0.293\ngini = 0.5\nsamples = 8\nvalue = [[4, 4]\n[4, 4]]"] ;
500 -> 502 ;
503 [label="X[4] <= 0.493\ngini = 0.444\nsamples = 6\nvalue = [[2, 4]\n[4, 2]]"] ;
502 -> 503 ;
504 [label="gini = 0.0\nsamples = 3\nvalue = [[0, 3]\n[3, 0]]"] ;
503 -> 504 ;
505 [label="X[3] <= 0.139\ngini = 0.444\nsamples = 3\nvalue = [[2, 1]\n[1, 2]]"] ;
503 -> 505 ;
506 [label="gini = 0.0\nsamples = 2\nvalue = [[2, 0]\n[0, 2]]"] ;
505 -> 506 ;
507 [label="gini = 0.0\nsamples = 1\nvalue = [[0, 1]\n[1, 0]]"] ;
505 -> 507 ;
508 [label="gini = 0.0\nsamples = 2\nvalue = [[2, 0]\n[0, 2]]"] ;
502 -> 508 ;
509 [label="X[2] <= 0.273\ngini = 0.091\nsamples = 21\nvalue = [[20, 1]\n[1, 20]]"] ;
475 -> 509 ;
510 [label="gini = 0.0\nsamples = 13\nvalue = [[13, 0]\n[0, 13]]"] ;
509 -> 510 ;
511 [label="X[2] <= 0.281\ngini = 0.219\nsamples = 8\nvalue = [[7, 1]\n[1, 7]]"] ;
509 -> 511 ;
512 [label="gini = 0.0\nsamples = 1\nvalue = [[0, 1]\n[1, 0]]"] ;
511 -> 512 ;
513 [label="gini = 0.0\nsamples = 7\nvalue = [[7, 0]\n[0, 7]]"] ;
511 -> 513 ;
514 [label="X[2] <= 0.187\ngini = 0.458\nsamples = 31\nvalue = [[20, 11]\n[11, 20]]"] ;
474 -> 514 ;
515 [label="X[3] <= 0.146\ngini = 0.463\nsamples = 11\nvalue = [[4, 7]\n[7, 4]]"] ;
514 -> 515 ;
516 [label="X[1] <= 0.005\ngini = 0.444\nsamples = 6\nvalue = [[4, 2]\n[2, 4]]"] ;
515 -> 516 ;
517 [label="gini = 0.0\nsamples = 3\nvalue = [[3, 0]\n[0, 3]]"] ;
516 -> 517 ;
518 [label="X[3] <= 0.145\ngini = 0.444\nsamples = 3\nvalue = [[1, 2]\n[2, 1]]"] ;
516 -> 518 ;
519 [label="gini = 0.0\nsamples = 2\nvalue = [[0, 2]\n[2, 0]]"] ;
518 -> 519 ;
520 [label="gini = 0.0\nsamples = 1\nvalue = [[1, 0]\n[0, 1]]"] ;
518 -> 520 ;
521 [label="gini = 0.0\nsamples = 5\nvalue = [[0, 5]\n[5, 0]]"] ;
515 -> 521 ;
522 [label="X[3] <= 0.144\ngini = 0.32\nsamples = 20\nvalue = [[16, 4]\n[4, 16]]"] ;
514 -> 522 ;
523 [label="gini = 0.0\nsamples = 1\nvalue = [[0, 1]\n[1, 0]]"] ;
522 -> 523 ;
524 [label="X[2] <= 0.264\ngini = 0.266\nsamples = 19\nvalue = [[16, 3]\n[3, 16]]"] ;
522 -> 524 ;
525 [label="X[2] <= 0.25\ngini = 0.375\nsamples = 12\nvalue = [[9, 3]\n[3, 9]]"] ;
524 -> 525 ;
526 [label="X[3] <= 0.148\ngini = 0.198\nsamples = 9\nvalue = [[8, 1]\n[1, 8]]"] ;
525 -> 526 ;
527 [label="gini = 0.0\nsamples = 7\nvalue = [[7, 0]\n[0, 7]]"] ;
526 -> 527 ;
528 [label="X[3] <= 0.148\ngini = 0.5\nsamples = 2\nvalue = [[1, 1]\n[1, 1]]"] ;
526 -> 528 ;
529 [label="gini = 0.0\nsamples = 1\nvalue = [[0, 1]\n[1, 0]]"] ;
528 -> 529 ;
530 [label="gini = 0.0\nsamples = 1\nvalue = [[1, 0]\n[0, 1]]"] ;
528 -> 530 ;
531 [label="X[3] <= 0.148\ngini = 0.444\nsamples = 3\nvalue = [[1, 2]\n[2, 1]]"] ;
525 -> 531 ;
532 [label="gini = 0.0\nsamples = 2\nvalue = [[0, 2]\n[2, 0]]"] ;
531 -> 532 ;
533 [label="gini = 0.0\nsamples = 1\nvalue = [[1, 0]\n[0, 1]]"] ;
531 -> 533 ;
534 [label="gini = 0.0\nsamples = 7\nvalue = [[7, 0]\n[0, 7]]"] ;
524 -> 534 ;
535 [label="gini = 0.0\nsamples = 1\nvalue = [[0, 1]\n[1, 0]]"] ;
473 -> 535 ;
536 [label="gini = 0.0\nsamples = 3\nvalue = [[0, 3]\n[3, 0]]"] ;
468 -> 536 ;
537 [label="X[3] <= 0.137\ngini = 0.25\nsamples = 41\nvalue = [[35, 6]\n[6, 35]]"] ;
467 -> 537 ;
538 [label="X[2] <= 0.177\ngini = 0.486\nsamples = 12\nvalue = [[7, 5]\n[5, 7]]"] ;
537 -> 538 ;
539 [label="gini = 0.0\nsamples = 2\nvalue = [[0, 2]\n[2, 0]]"] ;
538 -> 539 ;
540 [label="X[2] <= 0.236\ngini = 0.42\nsamples = 10\nvalue = [[7, 3]\n[3, 7]]"] ;
538 -> 540 ;
541 [label="gini = 0.0\nsamples = 4\nvalue = [[4, 0]\n[0, 4]]"] ;
540 -> 541 ;
542 [label="X[4] <= 0.439\ngini = 0.5\nsamples = 6\nvalue = [[3, 3]\n[3, 3]]"] ;
540 -> 542 ;
543 [label="gini = 0.0\nsamples = 1\nvalue = [[1, 0]\n[0, 1]]"] ;
542 -> 543 ;
544 [label="X[1] <= 0.006\ngini = 0.48\nsamples = 5\nvalue = [[2, 3]\n[3, 2]]"] ;
542 -> 544 ;
545 [label="gini = 0.0\nsamples = 1\nvalue = [[0, 1]\n[1, 0]]"] ;
544 -> 545 ;
546 [label="X[3] <= 0.134\ngini = 0.5\nsamples = 4\nvalue = [[2, 2]\n[2, 2]]"] ;
544 -> 546 ;
547 [label="gini = 0.0\nsamples = 1\nvalue = [[1, 0]\n[0, 1]]"] ;
546 -> 547 ;
548 [label="X[4] <= 0.463\ngini = 0.444\nsamples = 3\nvalue = [[1, 2]\n[2, 1]]"] ;
546 -> 548 ;
549 [label="gini = 0.0\nsamples = 2\nvalue = [[0, 2]\n[2, 0]]"] ;
548 -> 549 ;
550 [label="gini = 0.0\nsamples = 1\nvalue = [[1, 0]\n[0, 1]]"] ;
548 -> 550 ;
551 [label="X[2] <= 0.327\ngini = 0.067\nsamples = 29\nvalue = [[28, 1]\n[1, 28]]"] ;
537 -> 551 ;
552 [label="gini = 0.0\nsamples = 27\nvalue = [[27, 0]\n[0, 27]]"] ;
551 -> 552 ;
553 [label="X[3] <= 0.142\ngini = 0.5\nsamples = 2\nvalue = [[1, 1]\n[1, 1]]"] ;
551 -> 553 ;
554 [label="gini = 0.0\nsamples = 1\nvalue = [[0, 1]\n[1, 0]]"] ;
553 -> 554 ;
555 [label="gini = 0.0\nsamples = 1\nvalue = [[1, 0]\n[0, 1]]"] ;
553 -> 555 ;
556 [label="X[2] <= 0.16\ngini = 0.486\nsamples = 24\nvalue = [[14, 10]\n[10, 14]]"] ;
462 -> 556 ;
557 [label="gini = 0.0\nsamples = 4\nvalue = [[4, 0]\n[0, 4]]"] ;
556 -> 557 ;
558 [label="X[2] <= 0.263\ngini = 0.5\nsamples = 20\nvalue = [[10, 10]\n[10, 10]]"] ;
556 -> 558 ;
559 [label="X[3] <= 0.146\ngini = 0.469\nsamples = 16\nvalue = [[6, 10]\n[10, 6]]"] ;
558 -> 559 ;
560 [label="X[4] <= 0.417\ngini = 0.375\nsamples = 12\nvalue = [[3, 9]\n[9, 3]]"] ;
559 -> 560 ;
561 [label="X[2] <= 0.241\ngini = 0.444\nsamples = 3\nvalue = [[2, 1]\n[1, 2]]"] ;
560 -> 561 ;
562 [label="gini = 0.0\nsamples = 2\nvalue = [[2, 0]\n[0, 2]]"] ;
561 -> 562 ;
563 [label="gini = 0.0\nsamples = 1\nvalue = [[0, 1]\n[1, 0]]"] ;
561 -> 563 ;
564 [label="X[3] <= 0.139\ngini = 0.198\nsamples = 9\nvalue = [[1, 8]\n[8, 1]]"] ;
560 -> 564 ;
565 [label="X[3] <= 0.137\ngini = 0.375\nsamples = 4\nvalue = [[1, 3]\n[3, 1]]"] ;
564 -> 565 ;
566 [label="gini = 0.0\nsamples = 3\nvalue = [[0, 3]\n[3, 0]]"] ;
565 -> 566 ;
567 [label="gini = 0.0\nsamples = 1\nvalue = [[1, 0]\n[0, 1]]"] ;
565 -> 567 ;
568 [label="gini = 0.0\nsamples = 5\nvalue = [[0, 5]\n[5, 0]]"] ;
564 -> 568 ;
569 [label="X[4] <= 0.42\ngini = 0.375\nsamples = 4\nvalue = [[3, 1]\n[1, 3]]"] ;
559 -> 569 ;
570 [label="gini = 0.0\nsamples = 1\nvalue = [[0, 1]\n[1, 0]]"] ;
569 -> 570 ;
571 [label="gini = 0.0\nsamples = 3\nvalue = [[3, 0]\n[0, 3]]"] ;
569 -> 571 ;
572 [label="gini = 0.0\nsamples = 4\nvalue = [[4, 0]\n[0, 4]]"] ;
558 -> 572 ;
573 [label="gini = 0.0\nsamples = 3\nvalue = [[0, 3]\n[3, 0]]"] ;
461 -> 573 ;
574 [label="gini = 0.0\nsamples = 4\nvalue = [[4, 0]\n[0, 4]]"] ;
460 -> 574 ;
575 [label="gini = 0.0\nsamples = 1\nvalue = [[0, 1]\n[1, 0]]"] ;
455 -> 575 ;
576 [label="gini = 0.0\nsamples = 9\nvalue = [[9, 0]\n[0, 9]]"] ;
452 -> 576 ;
577 [label="X[4] <= 0.494\ngini = 0.48\nsamples = 5\nvalue = [[2, 3]\n[3, 2]]"] ;
451 -> 577 ;
578 [label="gini = 0.0\nsamples = 2\nvalue = [[2, 0]\n[0, 2]]"] ;
577 -> 578 ;
579 [label="gini = 0.0\nsamples = 3\nvalue = [[0, 3]\n[3, 0]]"] ;
577 -> 579 ;
580 [label="gini = 0.0\nsamples = 1\nvalue = [[0, 1]\n[1, 0]]"] ;
412 -> 580 ;
581 [label="X[2] <= 0.206\ngini = 0.492\nsamples = 48\nvalue = [[27, 21]\n[21, 27]]"] ;
407 -> 581 ;
582 [label="X[3] <= 0.147\ngini = 0.375\nsamples = 24\nvalue = [[18, 6]\n[6, 18]]"] ;
581 -> 582 ;
583 [label="X[3] <= 0.124\ngini = 0.298\nsamples = 22\nvalue = [[18, 4]\n[4, 18]]"] ;
582 -> 583 ;
584 [label="gini = 0.0\nsamples = 1\nvalue = [[0, 1]\n[1, 0]]"] ;
583 -> 584 ;
585 [label="X[3] <= 0.133\ngini = 0.245\nsamples = 21\nvalue = [[18, 3]\n[3, 18]]"] ;
583 -> 585 ;
586 [label="gini = 0.0\nsamples = 10\nvalue = [[10, 0]\n[0, 10]]"] ;
585 -> 586 ;
587 [label="X[3] <= 0.142\ngini = 0.397\nsamples = 11\nvalue = [[8, 3]\n[3, 8]]"] ;
585 -> 587 ;
588 [label="X[1] <= 0.017\ngini = 0.48\nsamples = 5\nvalue = [[2, 3]\n[3, 2]]"] ;
587 -> 588 ;
589 [label="gini = 0.0\nsamples = 2\nvalue = [[0, 2]\n[2, 0]]"] ;
588 -> 589 ;
590 [label="X[2] <= 0.121\ngini = 0.444\nsamples = 3\nvalue = [[2, 1]\n[1, 2]]"] ;
588 -> 590 ;
591 [label="gini = 0.0\nsamples = 1\nvalue = [[0, 1]\n[1, 0]]"] ;
590 -> 591 ;
592 [label="gini = 0.0\nsamples = 2\nvalue = [[2, 0]\n[0, 2]]"] ;
590 -> 592 ;
593 [label="gini = 0.0\nsamples = 6\nvalue = [[6, 0]\n[0, 6]]"] ;
587 -> 593 ;
594 [label="gini = 0.0\nsamples = 2\nvalue = [[0, 2]\n[2, 0]]"] ;
582 -> 594 ;
595 [label="X[0] <= 0.037\ngini = 0.469\nsamples = 24\nvalue = [[9, 15]\n[15, 9]]"] ;
581 -> 595 ;
596 [label="X[3] <= 0.14\ngini = 0.434\nsamples = 22\nvalue = [[7, 15]\n[15, 7]]"] ;
595 -> 596 ;
597 [label="X[3] <= 0.137\ngini = 0.492\nsamples = 16\nvalue = [[7, 9]\n[9, 7]]"] ;
596 -> 597 ;
598 [label="X[4] <= 0.376\ngini = 0.426\nsamples = 13\nvalue = [[4, 9]\n[9, 4]]"] ;
597 -> 598 ;
599 [label="X[1] <= 0.019\ngini = 0.5\nsamples = 8\nvalue = [[4, 4]\n[4, 4]]"] ;
598 -> 599 ;
600 [label="gini = 0.0\nsamples = 3\nvalue = [[3, 0]\n[0, 3]]"] ;
599 -> 600 ;
601 [label="X[1] <= 0.028\ngini = 0.32\nsamples = 5\nvalue = [[1, 4]\n[4, 1]]"] ;
599 -> 601 ;
602 [label="X[0] <= 0.024\ngini = 0.5\nsamples = 2\nvalue = [[1, 1]\n[1, 1]]"] ;
601 -> 602 ;
603 [label="gini = 0.0\nsamples = 1\nvalue = [[0, 1]\n[1, 0]]"] ;
602 -> 603 ;
604 [label="gini = 0.0\nsamples = 1\nvalue = [[1, 0]\n[0, 1]]"] ;
602 -> 604 ;
605 [label="gini = 0.0\nsamples = 3\nvalue = [[0, 3]\n[3, 0]]"] ;
601 -> 605 ;
606 [label="gini = 0.0\nsamples = 5\nvalue = [[0, 5]\n[5, 0]]"] ;
598 -> 606 ;
607 [label="gini = 0.0\nsamples = 3\nvalue = [[3, 0]\n[0, 3]]"] ;
597 -> 607 ;
608 [label="gini = 0.0\nsamples = 6\nvalue = [[0, 6]\n[6, 0]]"] ;
596 -> 608 ;
609 [label="gini = 0.0\nsamples = 2\nvalue = [[2, 0]\n[0, 2]]"] ;
595 -> 609 ;
610 [label="X[0] <= 0.003\ngini = 0.18\nsamples = 20\nvalue = [[18, 2]\n[2, 18]]"] ;
406 -> 610 ;
611 [label="X[2] <= 0.239\ngini = 0.444\nsamples = 3\nvalue = [[1, 2]\n[2, 1]]"] ;
610 -> 611 ;
612 [label="gini = 0.0\nsamples = 2\nvalue = [[0, 2]\n[2, 0]]"] ;
611 -> 612 ;
613 [label="gini = 0.0\nsamples = 1\nvalue = [[1, 0]\n[0, 1]]"] ;
611 -> 613 ;
614 [label="gini = 0.0\nsamples = 17\nvalue = [[17, 0]\n[0, 17]]"] ;
610 -> 614 ;
615 [label="X[3] <= 0.15\ngini = 0.117\nsamples = 16\nvalue = [[15, 1]\n[1, 15]]"] ;
405 -> 615 ;
616 [label="gini = 0.0\nsamples = 15\nvalue = [[15, 0]\n[0, 15]]"] ;
615 -> 616 ;
617 [label="gini = 0.0\nsamples = 1\nvalue = [[0, 1]\n[1, 0]]"] ;
615 -> 617 ;
618 [label="X[2] <= 0.088\ngini = 0.399\nsamples = 26517\nvalue = [[7298, 19219]\n[19219, 7298]]"] ;
214 -> 618 ;
619 [label="X[2] <= 0.068\ngini = 0.146\nsamples = 1721\nvalue = [[136, 1585]\n[1585, 136]]"] ;
618 -> 619 ;
620 [label="X[2] <= 0.046\ngini = 0.069\nsamples = 1063\nvalue = [[38, 1025]\n[1025, 38]]"] ;
619 -> 620 ;
621 [label="X[3] <= 0.596\ngini = 0.016\nsamples = 481\nvalue = [[4, 477]\n[477, 4]]"] ;
620 -> 621 ;
622 [label="gini = 0.0\nsamples = 148\nvalue = [[0, 148]\n[148, 0]]"] ;
621 -> 622 ;
623 [label="X[3] <= 0.597\ngini = 0.024\nsamples = 333\nvalue = [[4, 329]\n[329, 4]]"] ;
621 -> 623 ;
624 [label="gini = 0.0\nsamples = 1\nvalue = [[1, 0]\n[0, 1]]"] ;
623 -> 624 ;
625 [label="X[4] <= 0.524\ngini = 0.018\nsamples = 332\nvalue = [[3, 329]\n[329, 3]]"] ;
623 -> 625 ;
626 [label="X[2] <= 0.033\ngini = 0.013\nsamples = 302\nvalue = [[2, 300]\n[300, 2]]"] ;
625 -> 626 ;
627 [label="gini = 0.0\nsamples = 168\nvalue = [[0, 168]\n[168, 0]]"] ;
626 -> 627 ;
628 [label="X[2] <= 0.033\ngini = 0.029\nsamples = 134\nvalue = [[2, 132]\n[132, 2]]"] ;
626 -> 628 ;
629 [label="gini = 0.0\nsamples = 1\nvalue = [[1, 0]\n[0, 1]]"] ;
628 -> 629 ;
630 [label="X[3] <= 0.937\ngini = 0.015\nsamples = 133\nvalue = [[1, 132]\n[132, 1]]"] ;
628 -> 630 ;
631 [label="gini = 0.0\nsamples = 116\nvalue = [[0, 116]\n[116, 0]]"] ;
630 -> 631 ;
632 [label="X[3] <= 0.938\ngini = 0.111\nsamples = 17\nvalue = [[1, 16]\n[16, 1]]"] ;
630 -> 632 ;
633 [label="gini = 0.0\nsamples = 1\nvalue = [[1, 0]\n[0, 1]]"] ;
632 -> 633 ;
634 [label="gini = 0.0\nsamples = 16\nvalue = [[0, 16]\n[16, 0]]"] ;
632 -> 634 ;
635 [label="X[2] <= 0.025\ngini = 0.064\nsamples = 30\nvalue = [[1, 29]\n[29, 1]]"] ;
625 -> 635 ;
636 [label="X[2] <= 0.022\ngini = 0.219\nsamples = 8\nvalue = [[1, 7]\n[7, 1]]"] ;
635 -> 636 ;
637 [label="gini = 0.0\nsamples = 7\nvalue = [[0, 7]\n[7, 0]]"] ;
636 -> 637 ;
638 [label="gini = 0.0\nsamples = 1\nvalue = [[1, 0]\n[0, 1]]"] ;
636 -> 638 ;
639 [label="gini = 0.0\nsamples = 22\nvalue = [[0, 22]\n[22, 0]]"] ;
635 -> 639 ;
640 [label="X[2] <= 0.047\ngini = 0.11\nsamples = 582\nvalue = [[34, 548]\n[548, 34]]"] ;
620 -> 640 ;
641 [label="X[3] <= 0.606\ngini = 0.48\nsamples = 10\nvalue = [[4, 6]\n[6, 4]]"] ;
640 -> 641 ;
642 [label="gini = 0.0\nsamples = 2\nvalue = [[2, 0]\n[0, 2]]"] ;
641 -> 642 ;
643 [label="X[0] <= 0.005\ngini = 0.375\nsamples = 8\nvalue = [[2, 6]\n[6, 2]]"] ;
641 -> 643 ;
644 [label="X[3] <= 0.801\ngini = 0.444\nsamples = 3\nvalue = [[2, 1]\n[1, 2]]"] ;
643 -> 644 ;
645 [label="gini = 0.0\nsamples = 1\nvalue = [[0, 1]\n[1, 0]]"] ;
644 -> 645 ;
646 [label="gini = 0.0\nsamples = 2\nvalue = [[2, 0]\n[0, 2]]"] ;
644 -> 646 ;
647 [label="gini = 0.0\nsamples = 5\nvalue = [[0, 5]\n[5, 0]]"] ;
643 -> 647 ;
648 [label="X[3] <= 0.224\ngini = 0.099\nsamples = 572\nvalue = [[30, 542]\n[542, 30]]"] ;
640 -> 648 ;
649 [label="X[1] <= 0.005\ngini = 0.42\nsamples = 10\nvalue = [[3, 7]\n[7, 3]]"] ;
648 -> 649 ;
650 [label="gini = 0.0\nsamples = 6\nvalue = [[0, 6]\n[6, 0]]"] ;
649 -> 650 ;
651 [label="X[0] <= 0.011\ngini = 0.375\nsamples = 4\nvalue = [[3, 1]\n[1, 3]]"] ;
649 -> 651 ;
652 [label="gini = 0.0\nsamples = 3\nvalue = [[3, 0]\n[0, 3]]"] ;
651 -> 652 ;
653 [label="gini = 0.0\nsamples = 1\nvalue = [[0, 1]\n[1, 0]]"] ;
651 -> 653 ;
654 [label="X[4] <= 0.457\ngini = 0.091\nsamples = 562\nvalue = [[27, 535]\n[535, 27]]"] ;
648 -> 654 ;
655 [label="X[3] <= 0.457\ngini = 0.011\nsamples = 178\nvalue = [[1, 177]\n[177, 1]]"] ;
654 -> 655 ;
656 [label="X[3] <= 0.451\ngini = 0.083\nsamples = 23\nvalue = [[1, 22]\n[22, 1]]"] ;
655 -> 656 ;
657 [label="gini = 0.0\nsamples = 22\nvalue = [[0, 22]\n[22, 0]]"] ;
656 -> 657 ;
658 [label="gini = 0.0\nsamples = 1\nvalue = [[1, 0]\n[0, 1]]"] ;
656 -> 658 ;
659 [label="gini = 0.0\nsamples = 155\nvalue = [[0, 155]\n[155, 0]]"] ;
655 -> 659 ;
660 [label="X[1] <= 0.006\ngini = 0.126\nsamples = 384\nvalue = [[26, 358]\n[358, 26]]"] ;
654 -> 660 ;
661 [label="X[3] <= 0.651\ngini = 0.105\nsamples = 376\nvalue = [[21, 355]\n[355, 21]]"] ;
660 -> 661 ;
662 [label="X[2] <= 0.053\ngini = 0.06\nsamples = 226\nvalue = [[7, 219]\n[219, 7]]"] ;
661 -> 662 ;
663 [label="gini = 0.0\nsamples = 57\nvalue = [[0, 57]\n[57, 0]]"] ;
662 -> 663 ;
664 [label="X[2] <= 0.053\ngini = 0.079\nsamples = 169\nvalue = [[7, 162]\n[162, 7]]"] ;
662 -> 664 ;
665 [label="gini = 0.0\nsamples = 1\nvalue = [[1, 0]\n[0, 1]]"] ;
664 -> 665 ;
666 [label="X[4] <= 0.532\ngini = 0.069\nsamples = 168\nvalue = [[6, 162]\n[162, 6]]"] ;
664 -> 666 ;
667 [label="X[1] <= 0.004\ngini = 0.06\nsamples = 162\nvalue = [[5, 157]\n[157, 5]]"] ;
666 -> 667 ;
668 [label="X[4] <= 0.528\ngini = 0.019\nsamples = 102\nvalue = [[1, 101]\n[101, 1]]"] ;
667 -> 668 ;
669 [label="gini = 0.0\nsamples = 88\nvalue = [[0, 88]\n[88, 0]]"] ;
668 -> 669 ;
670 [label="X[3] <= 0.465\ngini = 0.133\nsamples = 14\nvalue = [[1, 13]\n[13, 1]]"] ;
668 -> 670 ;
671 [label="X[3] <= 0.445\ngini = 0.32\nsamples = 5\nvalue = [[1, 4]\n[4, 1]]"] ;
670 -> 671 ;
672 [label="gini = 0.0\nsamples = 4\nvalue = [[0, 4]\n[4, 0]]"] ;
671 -> 672 ;
673 [label="gini = 0.0\nsamples = 1\nvalue = [[1, 0]\n[0, 1]]"] ;
671 -> 673 ;
674 [label="gini = 0.0\nsamples = 9\nvalue = [[0, 9]\n[9, 0]]"] ;
670 -> 674 ;
675 [label="X[4] <= 0.497\ngini = 0.124\nsamples = 60\nvalue = [[4, 56]\n[56, 4]]"] ;
667 -> 675 ;
676 [label="X[1] <= 0.005\ngini = 0.097\nsamples = 59\nvalue = [[3, 56]\n[56, 3]]"] ;
675 -> 676 ;
677 [label="X[0] <= 0.005\ngini = 0.255\nsamples = 20\nvalue = [[3, 17]\n[17, 3]]"] ;
676 -> 677 ;
678 [label="X[2] <= 0.066\ngini = 0.188\nsamples = 19\nvalue = [[2, 17]\n[17, 2]]"] ;
677 -> 678 ;
679 [label="X[0] <= 0.004\ngini = 0.105\nsamples = 18\nvalue = [[1, 17]\n[17, 1]]"] ;
678 -> 679 ;
680 [label="X[0] <= 0.004\ngini = 0.278\nsamples = 6\nvalue = [[1, 5]\n[5, 1]]"] ;
679 -> 680 ;
681 [label="gini = 0.0\nsamples = 3\nvalue = [[0, 3]\n[3, 0]]"] ;
680 -> 681 ;
682 [label="X[2] <= 0.061\ngini = 0.444\nsamples = 3\nvalue = [[1, 2]\n[2, 1]]"] ;
680 -> 682 ;
683 [label="gini = 0.0\nsamples = 1\nvalue = [[1, 0]\n[0, 1]]"] ;
682 -> 683 ;
684 [label="gini = 0.0\nsamples = 2\nvalue = [[0, 2]\n[2, 0]]"] ;
682 -> 684 ;
685 [label="gini = 0.0\nsamples = 12\nvalue = [[0, 12]\n[12, 0]]"] ;
679 -> 685 ;
686 [label="gini = 0.0\nsamples = 1\nvalue = [[1, 0]\n[0, 1]]"] ;
678 -> 686 ;
687 [label="gini = 0.0\nsamples = 1\nvalue = [[1, 0]\n[0, 1]]"] ;
677 -> 687 ;
688 [label="gini = 0.0\nsamples = 39\nvalue = [[0, 39]\n[39, 0]]"] ;
676 -> 688 ;
689 [label="gini = 0.0\nsamples = 1\nvalue = [[1, 0]\n[0, 1]]"] ;
675 -> 689 ;
690 [label="X[2] <= 0.064\ngini = 0.278\nsamples = 6\nvalue = [[1, 5]\n[5, 1]]"] ;
666 -> 690 ;
691 [label="gini = 0.0\nsamples = 3\nvalue = [[0, 3]\n[3, 0]]"] ;
690 -> 691 ;
692 [label="X[2] <= 0.065\ngini = 0.444\nsamples = 3\nvalue = [[1, 2]\n[2, 1]]"] ;
690 -> 692 ;
693 [label="gini = 0.0\nsamples = 1\nvalue = [[1, 0]\n[0, 1]]"] ;
692 -> 693 ;
694 [label="gini = 0.0\nsamples = 2\nvalue = [[0, 2]\n[2, 0]]"] ;
692 -> 694 ;
695 [label="X[3] <= 0.653\ngini = 0.169\nsamples = 150\nvalue = [[14, 136]\n[136, 14]]"] ;
661 -> 695 ;
696 [label="gini = 0.0\nsamples = 1\nvalue = [[1, 0]\n[0, 1]]"] ;
695 -> 696 ;
697 [label="X[0] <= 0.004\ngini = 0.159\nsamples = 149\nvalue = [[13, 136]\n[136, 13]]"] ;
695 -> 697 ;
698 [label="X[2] <= 0.057\ngini = 0.282\nsamples = 59\nvalue = [[10, 49]\n[49, 10]]"] ;
697 -> 698 ;
699 [label="X[3] <= 0.662\ngini = 0.137\nsamples = 27\nvalue = [[2, 25]\n[25, 2]]"] ;
698 -> 699 ;
700 [label="X[3] <= 0.657\ngini = 0.5\nsamples = 2\nvalue = [[1, 1]\n[1, 1]]"] ;
699 -> 700 ;
701 [label="gini = 0.0\nsamples = 1\nvalue = [[0, 1]\n[1, 0]]"] ;
700 -> 701 ;
702 [label="gini = 0.0\nsamples = 1\nvalue = [[1, 0]\n[0, 1]]"] ;
700 -> 702 ;
703 [label="X[4] <= 0.531\ngini = 0.077\nsamples = 25\nvalue = [[1, 24]\n[24, 1]]"] ;
699 -> 703 ;
704 [label="gini = 0.0\nsamples = 22\nvalue = [[0, 22]\n[22, 0]]"] ;
703 -> 704 ;
705 [label="X[2] <= 0.053\ngini = 0.444\nsamples = 3\nvalue = [[1, 2]\n[2, 1]]"] ;
703 -> 705 ;
706 [label="gini = 0.0\nsamples = 1\nvalue = [[1, 0]\n[0, 1]]"] ;
705 -> 706 ;
707 [label="gini = 0.0\nsamples = 2\nvalue = [[0, 2]\n[2, 0]]"] ;
705 -> 707 ;
708 [label="X[2] <= 0.058\ngini = 0.375\nsamples = 32\nvalue = [[8, 24]\n[24, 8]]"] ;
698 -> 708 ;
709 [label="gini = 0.0\nsamples = 1\nvalue = [[1, 0]\n[0, 1]]"] ;
708 -> 709 ;
710 [label="X[0] <= 0.003\ngini = 0.35\nsamples = 31\nvalue = [[7, 24]\n[24, 7]]"] ;
708 -> 710 ;
711 [label="gini = 0.0\nsamples = 7\nvalue = [[0, 7]\n[7, 0]]"] ;
710 -> 711 ;
712 [label="X[4] <= 0.525\ngini = 0.413\nsamples = 24\nvalue = [[7, 17]\n[17, 7]]"] ;
710 -> 712 ;
713 [label="X[2] <= 0.061\ngini = 0.308\nsamples = 21\nvalue = [[4, 17]\n[17, 4]]"] ;
712 -> 713 ;
714 [label="gini = 0.0\nsamples = 6\nvalue = [[0, 6]\n[6, 0]]"] ;
713 -> 714 ;
715 [label="X[3] <= 0.693\ngini = 0.391\nsamples = 15\nvalue = [[4, 11]\n[11, 4]]"] ;
713 -> 715 ;
716 [label="X[2] <= 0.065\ngini = 0.444\nsamples = 3\nvalue = [[2, 1]\n[1, 2]]"] ;
715 -> 716 ;
717 [label="gini = 0.0\nsamples = 1\nvalue = [[0, 1]\n[1, 0]]"] ;
716 -> 717 ;
718 [label="gini = 0.0\nsamples = 2\nvalue = [[2, 0]\n[0, 2]]"] ;
716 -> 718 ;
719 [label="X[2] <= 0.062\ngini = 0.278\nsamples = 12\nvalue = [[2, 10]\n[10, 2]]"] ;
715 -> 719 ;
720 [label="gini = 0.0\nsamples = 1\nvalue = [[1, 0]\n[0, 1]]"] ;
719 -> 720 ;
721 [label="X[0] <= 0.004\ngini = 0.165\nsamples = 11\nvalue = [[1, 10]\n[10, 1]]"] ;
719 -> 721 ;
722 [label="gini = 0.0\nsamples = 9\nvalue = [[0, 9]\n[9, 0]]"] ;
721 -> 722 ;
723 [label="X[2] <= 0.064\ngini = 0.5\nsamples = 2\nvalue = [[1, 1]\n[1, 1]]"] ;
721 -> 723 ;
724 [label="gini = 0.0\nsamples = 1\nvalue = [[0, 1]\n[1, 0]]"] ;
723 -> 724 ;
725 [label="gini = 0.0\nsamples = 1\nvalue = [[1, 0]\n[0, 1]]"] ;
723 -> 725 ;
726 [label="gini = 0.0\nsamples = 3\nvalue = [[3, 0]\n[0, 3]]"] ;
712 -> 726 ;
727 [label="X[3] <= 0.974\ngini = 0.064\nsamples = 90\nvalue = [[3, 87]\n[87, 3]]"] ;
697 -> 727 ;
728 [label="X[2] <= 0.048\ngini = 0.044\nsamples = 88\nvalue = [[2, 86]\n[86, 2]]"] ;
727 -> 728 ;
729 [label="X[3] <= 0.793\ngini = 0.444\nsamples = 3\nvalue = [[1, 2]\n[2, 1]]"] ;
728 -> 729 ;
730 [label="gini = 0.0\nsamples = 1\nvalue = [[1, 0]\n[0, 1]]"] ;
729 -> 730 ;
731 [label="gini = 0.0\nsamples = 2\nvalue = [[0, 2]\n[2, 0]]"] ;
729 -> 731 ;
732 [label="X[2] <= 0.065\ngini = 0.023\nsamples = 85\nvalue = [[1, 84]\n[84, 1]]"] ;
728 -> 732 ;
733 [label="gini = 0.0\nsamples = 72\nvalue = [[0, 72]\n[72, 0]]"] ;
732 -> 733 ;
734 [label="X[2] <= 0.065\ngini = 0.142\nsamples = 13\nvalue = [[1, 12]\n[12, 1]]"] ;
732 -> 734 ;
735 [label="gini = 0.0\nsamples = 1\nvalue = [[1, 0]\n[0, 1]]"] ;
734 -> 735 ;
736 [label="gini = 0.0\nsamples = 12\nvalue = [[0, 12]\n[12, 0]]"] ;
734 -> 736 ;
737 [label="X[1] <= 0.005\ngini = 0.5\nsamples = 2\nvalue = [[1, 1]\n[1, 1]]"] ;
727 -> 737 ;
738 [label="gini = 0.0\nsamples = 1\nvalue = [[0, 1]\n[1, 0]]"] ;
737 -> 738 ;
739 [label="gini = 0.0\nsamples = 1\nvalue = [[1, 0]\n[0, 1]]"] ;
737 -> 739 ;
740 [label="X[3] <= 0.528\ngini = 0.469\nsamples = 8\nvalue = [[5, 3]\n[3, 5]]"] ;
660 -> 740 ;
741 [label="gini = 0.0\nsamples = 4\nvalue = [[4, 0]\n[0, 4]]"] ;
740 -> 741 ;
742 [label="X[3] <= 0.622\ngini = 0.375\nsamples = 4\nvalue = [[1, 3]\n[3, 1]]"] ;
740 -> 742 ;
743 [label="gini = 0.0\nsamples = 2\nvalue = [[0, 2]\n[2, 0]]"] ;
742 -> 743 ;
744 [label="X[3] <= 0.799\ngini = 0.5\nsamples = 2\nvalue = [[1, 1]\n[1, 1]]"] ;
742 -> 744 ;
745 [label="gini = 0.0\nsamples = 1\nvalue = [[1, 0]\n[0, 1]]"] ;
744 -> 745 ;
746 [label="gini = 0.0\nsamples = 1\nvalue = [[0, 1]\n[1, 0]]"] ;
744 -> 746 ;
747 [label="X[3] <= 0.283\ngini = 0.254\nsamples = 658\nvalue = [[98, 560]\n[560, 98]]"] ;
619 -> 747 ;
748 [label="X[4] <= 0.502\ngini = 0.478\nsamples = 43\nvalue = [[17, 26]\n[26, 17]]"] ;
747 -> 748 ;
749 [label="X[3] <= 0.268\ngini = 0.491\nsamples = 23\nvalue = [[13, 10]\n[10, 13]]"] ;
748 -> 749 ;
750 [label="X[3] <= 0.242\ngini = 0.498\nsamples = 17\nvalue = [[8, 9]\n[9, 8]]"] ;
749 -> 750 ;
751 [label="X[2] <= 0.075\ngini = 0.444\nsamples = 12\nvalue = [[8, 4]\n[4, 8]]"] ;
750 -> 751 ;
752 [label="gini = 0.0\nsamples = 5\nvalue = [[5, 0]\n[0, 5]]"] ;
751 -> 752 ;
753 [label="X[3] <= 0.176\ngini = 0.49\nsamples = 7\nvalue = [[3, 4]\n[4, 3]]"] ;
751 -> 753 ;
754 [label="gini = 0.0\nsamples = 1\nvalue = [[1, 0]\n[0, 1]]"] ;
753 -> 754 ;
755 [label="X[2] <= 0.082\ngini = 0.444\nsamples = 6\nvalue = [[2, 4]\n[4, 2]]"] ;
753 -> 755 ;
756 [label="gini = 0.0\nsamples = 3\nvalue = [[0, 3]\n[3, 0]]"] ;
755 -> 756 ;
757 [label="X[2] <= 0.085\ngini = 0.444\nsamples = 3\nvalue = [[2, 1]\n[1, 2]]"] ;
755 -> 757 ;
758 [label="gini = 0.0\nsamples = 2\nvalue = [[2, 0]\n[0, 2]]"] ;
757 -> 758 ;
759 [label="gini = 0.0\nsamples = 1\nvalue = [[0, 1]\n[1, 0]]"] ;
757 -> 759 ;
760 [label="gini = 0.0\nsamples = 5\nvalue = [[0, 5]\n[5, 0]]"] ;
750 -> 760 ;
761 [label="X[1] <= 0.006\ngini = 0.278\nsamples = 6\nvalue = [[5, 1]\n[1, 5]]"] ;
749 -> 761 ;
762 [label="gini = 0.0\nsamples = 5\nvalue = [[5, 0]\n[0, 5]]"] ;
761 -> 762 ;
763 [label="gini = 0.0\nsamples = 1\nvalue = [[0, 1]\n[1, 0]]"] ;
761 -> 763 ;
764 [label="X[3] <= 0.153\ngini = 0.32\nsamples = 20\nvalue = [[4, 16]\n[16, 4]]"] ;
748 -> 764 ;
765 [label="gini = 0.0\nsamples = 1\nvalue = [[1, 0]\n[0, 1]]"] ;
764 -> 765 ;
766 [label="X[4] <= 0.526\ngini = 0.266\nsamples = 19\nvalue = [[3, 16]\n[16, 3]]"] ;
764 -> 766 ;
767 [label="gini = 0.0\nsamples = 9\nvalue = [[0, 9]\n[9, 0]]"] ;
766 -> 767 ;
768 [label="X[2] <= 0.076\ngini = 0.42\nsamples = 10\nvalue = [[3, 7]\n[7, 3]]"] ;
766 -> 768 ;
769 [label="X[4] <= 0.529\ngini = 0.48\nsamples = 5\nvalue = [[3, 2]\n[2, 3]]"] ;
768 -> 769 ;
770 [label="gini = 0.0\nsamples = 2\nvalue = [[2, 0]\n[0, 2]]"] ;
769 -> 770 ;
771 [label="X[2] <= 0.072\ngini = 0.444\nsamples = 3\nvalue = [[1, 2]\n[2, 1]]"] ;
769 -> 771 ;
772 [label="gini = 0.0\nsamples = 1\nvalue = [[1, 0]\n[0, 1]]"] ;
771 -> 772 ;
773 [label="gini = 0.0\nsamples = 2\nvalue = [[0, 2]\n[2, 0]]"] ;
771 -> 773 ;
774 [label="gini = 0.0\nsamples = 5\nvalue = [[0, 5]\n[5, 0]]"] ;
768 -> 774 ;
775 [label="X[0] <= 0.007\ngini = 0.229\nsamples = 615\nvalue = [[81, 534]\n[534, 81]]"] ;
747 -> 775 ;
776 [label="X[0] <= 0.003\ngini = 0.277\nsamples = 446\nvalue = [[74, 372]\n[372, 74]]"] ;
775 -> 776 ;
777 [label="X[3] <= 0.714\ngini = 0.065\nsamples = 59\nvalue = [[2, 57]\n[57, 2]]"] ;
776 -> 777 ;
778 [label="X[3] <= 0.707\ngini = 0.114\nsamples = 33\nvalue = [[2, 31]\n[31, 2]]"] ;
777 -> 778 ;
779 [label="X[2] <= 0.083\ngini = 0.061\nsamples = 32\nvalue = [[1, 31]\n[31, 1]]"] ;
778 -> 779 ;
780 [label="gini = 0.0\nsamples = 26\nvalue = [[0, 26]\n[26, 0]]"] ;
779 -> 780 ;
781 [label="X[2] <= 0.084\ngini = 0.278\nsamples = 6\nvalue = [[1, 5]\n[5, 1]]"] ;
779 -> 781 ;
782 [label="gini = 0.0\nsamples = 1\nvalue = [[1, 0]\n[0, 1]]"] ;
781 -> 782 ;
783 [label="gini = 0.0\nsamples = 5\nvalue = [[0, 5]\n[5, 0]]"] ;
781 -> 783 ;
784 [label="gini = 0.0\nsamples = 1\nvalue = [[1, 0]\n[0, 1]]"] ;
778 -> 784 ;
785 [label="gini = 0.0\nsamples = 26\nvalue = [[0, 26]\n[26, 0]]"] ;
777 -> 785 ;
786 [label="X[3] <= 0.515\ngini = 0.303\nsamples = 387\nvalue = [[72, 315]\n[315, 72]]"] ;
776 -> 786 ;
787 [label="X[0] <= 0.006\ngini = 0.184\nsamples = 117\nvalue = [[12, 105]\n[105, 12]]"] ;
786 -> 787 ;
788 [label="X[3] <= 0.314\ngini = 0.1\nsamples = 95\nvalue = [[5, 90]\n[90, 5]]"] ;
787 -> 788 ;
789 [label="X[3] <= 0.304\ngini = 0.278\nsamples = 12\nvalue = [[2, 10]\n[10, 2]]"] ;
788 -> 789 ;
790 [label="gini = 0.0\nsamples = 9\nvalue = [[0, 9]\n[9, 0]]"] ;
789 -> 790 ;
791 [label="X[4] <= 0.476\ngini = 0.444\nsamples = 3\nvalue = [[2, 1]\n[1, 2]]"] ;
789 -> 791 ;
792 [label="gini = 0.0\nsamples = 1\nvalue = [[0, 1]\n[1, 0]]"] ;
791 -> 792 ;
793 [label="gini = 0.0\nsamples = 2\nvalue = [[2, 0]\n[0, 2]]"] ;
791 -> 793 ;
794 [label="X[0] <= 0.005\ngini = 0.07\nsamples = 83\nvalue = [[3, 80]\n[80, 3]]"] ;
788 -> 794 ;
795 [label="gini = 0.0\nsamples = 45\nvalue = [[0, 45]\n[45, 0]]"] ;
794 -> 795 ;
796 [label="X[1] <= 0.005\ngini = 0.145\nsamples = 38\nvalue = [[3, 35]\n[35, 3]]"] ;
794 -> 796 ;
797 [label="gini = 0.0\nsamples = 1\nvalue = [[1, 0]\n[0, 1]]"] ;
796 -> 797 ;
798 [label="X[0] <= 0.005\ngini = 0.102\nsamples = 37\nvalue = [[2, 35]\n[35, 2]]"] ;
796 -> 798 ;
799 [label="X[3] <= 0.374\ngini = 0.375\nsamples = 8\nvalue = [[2, 6]\n[6, 2]]"] ;
798 -> 799 ;
800 [label="gini = 0.0\nsamples = 2\nvalue = [[2, 0]\n[0, 2]]"] ;
799 -> 800 ;
801 [label="gini = 0.0\nsamples = 6\nvalue = [[0, 6]\n[6, 0]]"] ;
799 -> 801 ;
802 [label="gini = 0.0\nsamples = 29\nvalue = [[0, 29]\n[29, 0]]"] ;
798 -> 802 ;
803 [label="X[1] <= 0.006\ngini = 0.434\nsamples = 22\nvalue = [[7, 15]\n[15, 7]]"] ;
787 -> 803 ;
804 [label="gini = 0.0\nsamples = 5\nvalue = [[5, 0]\n[0, 5]]"] ;
803 -> 804 ;
805 [label="X[2] <= 0.087\ngini = 0.208\nsamples = 17\nvalue = [[2, 15]\n[15, 2]]"] ;
803 -> 805 ;
806 [label="X[3] <= 0.495\ngini = 0.117\nsamples = 16\nvalue = [[1, 15]\n[15, 1]]"] ;
805 -> 806 ;
807 [label="gini = 0.0\nsamples = 14\nvalue = [[0, 14]\n[14, 0]]"] ;
806 -> 807 ;
808 [label="X[3] <= 0.51\ngini = 0.5\nsamples = 2\nvalue = [[1, 1]\n[1, 1]]"] ;
806 -> 808 ;
809 [label="gini = 0.0\nsamples = 1\nvalue = [[1, 0]\n[0, 1]]"] ;
808 -> 809 ;
810 [label="gini = 0.0\nsamples = 1\nvalue = [[0, 1]\n[1, 0]]"] ;
808 -> 810 ;
811 [label="gini = 0.0\nsamples = 1\nvalue = [[1, 0]\n[0, 1]]"] ;
805 -> 811 ;
812 [label="X[3] <= 0.595\ngini = 0.346\nsamples = 270\nvalue = [[60, 210]\n[210, 60]]"] ;
786 -> 812 ;
813 [label="X[3] <= 0.58\ngini = 0.455\nsamples = 60\nvalue = [[21, 39]\n[39, 21]]"] ;
812 -> 813 ;
814 [label="X[0] <= 0.007\ngini = 0.417\nsamples = 54\nvalue = [[16, 38]\n[38, 16]]"] ;
813 -> 814 ;
815 [label="X[2] <= 0.08\ngini = 0.385\nsamples = 50\nvalue = [[13, 37]\n[37, 13]]"] ;
814 -> 815 ;
816 [label="X[2] <= 0.071\ngini = 0.464\nsamples = 30\nvalue = [[11, 19]\n[19, 11]]"] ;
815 -> 816 ;
817 [label="gini = 0.0\nsamples = 7\nvalue = [[0, 7]\n[7, 0]]"] ;
816 -> 817 ;
818 [label="X[0] <= 0.005\ngini = 0.499\nsamples = 23\nvalue = [[11, 12]\n[12, 11]]"] ;
816 -> 818 ;
819 [label="X[2] <= 0.079\ngini = 0.48\nsamples = 15\nvalue = [[9, 6]\n[6, 9]]"] ;
818 -> 819 ;
820 [label="X[4] <= 0.493\ngini = 0.5\nsamples = 12\nvalue = [[6, 6]\n[6, 6]]"] ;
819 -> 820 ;
821 [label="gini = 0.0\nsamples = 2\nvalue = [[0, 2]\n[2, 0]]"] ;
820 -> 821 ;
822 [label="X[2] <= 0.079\ngini = 0.48\nsamples = 10\nvalue = [[6, 4]\n[4, 6]]"] ;
820 -> 822 ;
823 [label="X[3] <= 0.532\ngini = 0.444\nsamples = 9\nvalue = [[6, 3]\n[3, 6]]"] ;
822 -> 823 ;
824 [label="X[3] <= 0.524\ngini = 0.444\nsamples = 3\nvalue = [[1, 2]\n[2, 1]]"] ;
823 -> 824 ;
825 [label="gini = 0.0\nsamples = 1\nvalue = [[1, 0]\n[0, 1]]"] ;
824 -> 825 ;
826 [label="gini = 0.0\nsamples = 2\nvalue = [[0, 2]\n[2, 0]]"] ;
824 -> 826 ;
827 [label="X[1] <= 0.004\ngini = 0.278\nsamples = 6\nvalue = [[5, 1]\n[1, 5]]"] ;
823 -> 827 ;
828 [label="gini = 0.0\nsamples = 3\nvalue = [[3, 0]\n[0, 3]]"] ;
827 -> 828 ;
829 [label="X[3] <= 0.545\ngini = 0.444\nsamples = 3\nvalue = [[2, 1]\n[1, 2]]"] ;
827 -> 829 ;
830 [label="gini = 0.0\nsamples = 1\nvalue = [[0, 1]\n[1, 0]]"] ;
829 -> 830 ;
831 [label="gini = 0.0\nsamples = 2\nvalue = [[2, 0]\n[0, 2]]"] ;
829 -> 831 ;
832 [label="gini = 0.0\nsamples = 1\nvalue = [[0, 1]\n[1, 0]]"] ;
822 -> 832 ;
833 [label="gini = 0.0\nsamples = 3\nvalue = [[3, 0]\n[0, 3]]"] ;
819 -> 833 ;
834 [label="X[3] <= 0.567\ngini = 0.375\nsamples = 8\nvalue = [[2, 6]\n[6, 2]]"] ;
818 -> 834 ;
835 [label="gini = 0.0\nsamples = 6\nvalue = [[0, 6]\n[6, 0]]"] ;
834 -> 835 ;
836 [label="gini = 0.0\nsamples = 2\nvalue = [[2, 0]\n[0, 2]]"] ;
834 -> 836 ;
837 [label="X[4] <= 0.5\ngini = 0.18\nsamples = 20\nvalue = [[2, 18]\n[18, 2]]"] ;
815 -> 837 ;
838 [label="X[3] <= 0.548\ngini = 0.111\nsamples = 17\nvalue = [[1, 16]\n[16, 1]]"] ;
837 -> 838 ;
839 [label="gini = 0.0\nsamples = 10\nvalue = [[0, 10]\n[10, 0]]"] ;
838 -> 839 ;
840 [label="X[3] <= 0.551\ngini = 0.245\nsamples = 7\nvalue = [[1, 6]\n[6, 1]]"] ;
838 -> 840 ;
841 [label="gini = 0.0\nsamples = 1\nvalue = [[1, 0]\n[0, 1]]"] ;
840 -> 841 ;
842 [label="gini = 0.0\nsamples = 6\nvalue = [[0, 6]\n[6, 0]]"] ;
840 -> 842 ;
843 [label="X[0] <= 0.004\ngini = 0.444\nsamples = 3\nvalue = [[1, 2]\n[2, 1]]"] ;
837 -> 843 ;
844 [label="gini = 0.0\nsamples = 2\nvalue = [[0, 2]\n[2, 0]]"] ;
843 -> 844 ;
845 [label="gini = 0.0\nsamples = 1\nvalue = [[1, 0]\n[0, 1]]"] ;
843 -> 845 ;
846 [label="X[1] <= 0.007\ngini = 0.375\nsamples = 4\nvalue = [[3, 1]\n[1, 3]]"] ;
814 -> 846 ;
847 [label="gini = 0.0\nsamples = 3\nvalue = [[3, 0]\n[0, 3]]"] ;
846 -> 847 ;
848 [label="gini = 0.0\nsamples = 1\nvalue = [[0, 1]\n[1, 0]]"] ;
846 -> 848 ;
849 [label="X[1] <= 0.004\ngini = 0.278\nsamples = 6\nvalue = [[5, 1]\n[1, 5]]"] ;
813 -> 849 ;
850 [label="gini = 0.0\nsamples = 4\nvalue = [[4, 0]\n[0, 4]]"] ;
849 -> 850 ;
851 [label="X[2] <= 0.073\ngini = 0.5\nsamples = 2\nvalue = [[1, 1]\n[1, 1]]"] ;
849 -> 851 ;
852 [label="gini = 0.0\nsamples = 1\nvalue = [[0, 1]\n[1, 0]]"] ;
851 -> 852 ;
853 [label="gini = 0.0\nsamples = 1\nvalue = [[1, 0]\n[0, 1]]"] ;
851 -> 853 ;
854 [label="X[2] <= 0.069\ngini = 0.302\nsamples = 210\nvalue = [[39, 171]\n[171, 39]]"] ;
812 -> 854 ;
855 [label="X[3] <= 0.792\ngini = 0.49\nsamples = 7\nvalue = [[4, 3]\n[3, 4]]"] ;
854 -> 855 ;
856 [label="X[0] <= 0.005\ngini = 0.375\nsamples = 4\nvalue = [[1, 3]\n[3, 1]]"] ;
855 -> 856 ;
857 [label="gini = 0.0\nsamples = 3\nvalue = [[0, 3]\n[3, 0]]"] ;
856 -> 857 ;
858 [label="gini = 0.0\nsamples = 1\nvalue = [[1, 0]\n[0, 1]]"] ;
856 -> 858 ;
859 [label="gini = 0.0\nsamples = 3\nvalue = [[3, 0]\n[0, 3]]"] ;
855 -> 859 ;
860 [label="X[2] <= 0.081\ngini = 0.285\nsamples = 203\nvalue = [[35, 168]\n[168, 35]]"] ;
854 -> 860 ;
861 [label="X[3] <= 0.654\ngini = 0.23\nsamples = 143\nvalue = [[19, 124]\n[124, 19]]"] ;
860 -> 861 ;
862 [label="gini = 0.0\nsamples = 21\nvalue = [[0, 21]\n[21, 0]]"] ;
861 -> 862 ;
863 [label="X[1] <= 0.007\ngini = 0.263\nsamples = 122\nvalue = [[19, 103]\n[103, 19]]"] ;
861 -> 863 ;
864 [label="X[3] <= 0.656\ngini = 0.253\nsamples = 121\nvalue = [[18, 103]\n[103, 18]]"] ;
863 -> 864 ;
865 [label="gini = 0.0\nsamples = 1\nvalue = [[1, 0]\n[0, 1]]"] ;
864 -> 865 ;
866 [label="X[2] <= 0.078\ngini = 0.243\nsamples = 120\nvalue = [[17, 103]\n[103, 17]]"] ;
864 -> 866 ;
867 [label="X[2] <= 0.076\ngini = 0.18\nsamples = 80\nvalue = [[8, 72]\n[72, 8]]"] ;
866 -> 867 ;
868 [label="X[2] <= 0.075\ngini = 0.252\nsamples = 54\nvalue = [[8, 46]\n[46, 8]]"] ;
867 -> 868 ;
869 [label="X[3] <= 0.756\ngini = 0.229\nsamples = 53\nvalue = [[7, 46]\n[46, 7]]"] ;
868 -> 869 ;
870 [label="gini = 0.0\nsamples = 14\nvalue = [[0, 14]\n[14, 0]]"] ;
869 -> 870 ;
871 [label="X[3] <= 0.785\ngini = 0.295\nsamples = 39\nvalue = [[7, 32]\n[32, 7]]"] ;
869 -> 871 ;
872 [label="X[0] <= 0.006\ngini = 0.32\nsamples = 5\nvalue = [[4, 1]\n[1, 4]]"] ;
871 -> 872 ;
873 [label="gini = 0.0\nsamples = 4\nvalue = [[4, 0]\n[0, 4]]"] ;
872 -> 873 ;
874 [label="gini = 0.0\nsamples = 1\nvalue = [[0, 1]\n[1, 0]]"] ;
872 -> 874 ;
875 [label="X[2] <= 0.073\ngini = 0.161\nsamples = 34\nvalue = [[3, 31]\n[31, 3]]"] ;
871 -> 875 ;
876 [label="gini = 0.0\nsamples = 24\nvalue = [[0, 24]\n[24, 0]]"] ;
875 -> 876 ;
877 [label="X[3] <= 0.911\ngini = 0.42\nsamples = 10\nvalue = [[3, 7]\n[7, 3]]"] ;
875 -> 877 ;
878 [label="X[3] <= 0.832\ngini = 0.219\nsamples = 8\nvalue = [[1, 7]\n[7, 1]]"] ;
877 -> 878 ;
879 [label="X[0] <= 0.003\ngini = 0.5\nsamples = 2\nvalue = [[1, 1]\n[1, 1]]"] ;
878 -> 879 ;
880 [label="gini = 0.0\nsamples = 1\nvalue = [[0, 1]\n[1, 0]]"] ;
879 -> 880 ;
881 [label="gini = 0.0\nsamples = 1\nvalue = [[1, 0]\n[0, 1]]"] ;
879 -> 881 ;
882 [label="gini = 0.0\nsamples = 6\nvalue = [[0, 6]\n[6, 0]]"] ;
878 -> 882 ;
883 [label="gini = 0.0\nsamples = 2\nvalue = [[2, 0]\n[0, 2]]"] ;
877 -> 883 ;
884 [label="gini = 0.0\nsamples = 1\nvalue = [[1, 0]\n[0, 1]]"] ;
868 -> 884 ;
885 [label="gini = 0.0\nsamples = 26\nvalue = [[0, 26]\n[26, 0]]"] ;
867 -> 885 ;
886 [label="X[2] <= 0.078\ngini = 0.349\nsamples = 40\nvalue = [[9, 31]\n[31, 9]]"] ;
866 -> 886 ;
887 [label="gini = 0.0\nsamples = 2\nvalue = [[2, 0]\n[0, 2]]"] ;
886 -> 887 ;
888 [label="X[2] <= 0.08\ngini = 0.301\nsamples = 38\nvalue = [[7, 31]\n[31, 7]]"] ;
886 -> 888 ;
889 [label="X[3] <= 0.898\ngini = 0.42\nsamples = 20\nvalue = [[6, 14]\n[14, 6]]"] ;
888 -> 889 ;
890 [label="X[1] <= 0.004\ngini = 0.346\nsamples = 18\nvalue = [[4, 14]\n[14, 4]]"] ;
889 -> 890 ;
891 [label="X[2] <= 0.079\ngini = 0.494\nsamples = 9\nvalue = [[4, 5]\n[5, 4]]"] ;
890 -> 891 ;
892 [label="X[3] <= 0.766\ngini = 0.32\nsamples = 5\nvalue = [[1, 4]\n[4, 1]]"] ;
891 -> 892 ;
893 [label="gini = 0.0\nsamples = 3\nvalue = [[0, 3]\n[3, 0]]"] ;
892 -> 893 ;
894 [label="X[4] <= 0.503\ngini = 0.5\nsamples = 2\nvalue = [[1, 1]\n[1, 1]]"] ;
892 -> 894 ;
895 [label="gini = 0.0\nsamples = 1\nvalue = [[1, 0]\n[0, 1]]"] ;
894 -> 895 ;
896 [label="gini = 0.0\nsamples = 1\nvalue = [[0, 1]\n[1, 0]]"] ;
894 -> 896 ;
897 [label="X[0] <= 0.004\ngini = 0.375\nsamples = 4\nvalue = [[3, 1]\n[1, 3]]"] ;
891 -> 897 ;
898 [label="X[2] <= 0.08\ngini = 0.5\nsamples = 2\nvalue = [[1, 1]\n[1, 1]]"] ;
897 -> 898 ;
899 [label="gini = 0.0\nsamples = 1\nvalue = [[1, 0]\n[0, 1]]"] ;
898 -> 899 ;
900 [label="gini = 0.0\nsamples = 1\nvalue = [[0, 1]\n[1, 0]]"] ;
898 -> 900 ;
901 [label="gini = 0.0\nsamples = 2\nvalue = [[2, 0]\n[0, 2]]"] ;
897 -> 901 ;
902 [label="gini = 0.0\nsamples = 9\nvalue = [[0, 9]\n[9, 0]]"] ;
890 -> 902 ;
903 [label="gini = 0.0\nsamples = 2\nvalue = [[2, 0]\n[0, 2]]"] ;
889 -> 903 ;
904 [label="X[0] <= 0.004\ngini = 0.105\nsamples = 18\nvalue = [[1, 17]\n[17, 1]]"] ;
888 -> 904 ;
905 [label="gini = 0.0\nsamples = 11\nvalue = [[0, 11]\n[11, 0]]"] ;
904 -> 905 ;
906 [label="X[4] <= 0.491\ngini = 0.245\nsamples = 7\nvalue = [[1, 6]\n[6, 1]]"] ;
904 -> 906 ;
907 [label="gini = 0.0\nsamples = 5\nvalue = [[0, 5]\n[5, 0]]"] ;
906 -> 907 ;
908 [label="X[2] <= 0.081\ngini = 0.5\nsamples = 2\nvalue = [[1, 1]\n[1, 1]]"] ;
906 -> 908 ;
909 [label="gini = 0.0\nsamples = 1\nvalue = [[1, 0]\n[0, 1]]"] ;
908 -> 909 ;
910 [label="gini = 0.0\nsamples = 1\nvalue = [[0, 1]\n[1, 0]]"] ;
908 -> 910 ;
911 [label="gini = 0.0\nsamples = 1\nvalue = [[1, 0]\n[0, 1]]"] ;
863 -> 911 ;
912 [label="X[2] <= 0.083\ngini = 0.391\nsamples = 60\nvalue = [[16, 44]\n[44, 16]]"] ;
860 -> 912 ;
913 [label="X[2] <= 0.082\ngini = 0.469\nsamples = 16\nvalue = [[10, 6]\n[6, 10]]"] ;
912 -> 913 ;
914 [label="gini = 0.0\nsamples = 4\nvalue = [[4, 0]\n[0, 4]]"] ;
913 -> 914 ;
915 [label="X[2] <= 0.082\ngini = 0.5\nsamples = 12\nvalue = [[6, 6]\n[6, 6]]"] ;
913 -> 915 ;
916 [label="X[1] <= 0.004\ngini = 0.278\nsamples = 6\nvalue = [[1, 5]\n[5, 1]]"] ;
915 -> 916 ;
917 [label="X[4] <= 0.504\ngini = 0.5\nsamples = 2\nvalue = [[1, 1]\n[1, 1]]"] ;
916 -> 917 ;
918 [label="gini = 0.0\nsamples = 1\nvalue = [[1, 0]\n[0, 1]]"] ;
917 -> 918 ;
919 [label="gini = 0.0\nsamples = 1\nvalue = [[0, 1]\n[1, 0]]"] ;
917 -> 919 ;
920 [label="gini = 0.0\nsamples = 4\nvalue = [[0, 4]\n[4, 0]]"] ;
916 -> 920 ;
921 [label="X[4] <= 0.487\ngini = 0.278\nsamples = 6\nvalue = [[5, 1]\n[1, 5]]"] ;
915 -> 921 ;
922 [label="X[1] <= 0.005\ngini = 0.444\nsamples = 3\nvalue = [[2, 1]\n[1, 2]]"] ;
921 -> 922 ;
923 [label="gini = 0.0\nsamples = 1\nvalue = [[0, 1]\n[1, 0]]"] ;
922 -> 923 ;
924 [label="gini = 0.0\nsamples = 2\nvalue = [[2, 0]\n[0, 2]]"] ;
922 -> 924 ;
925 [label="gini = 0.0\nsamples = 3\nvalue = [[3, 0]\n[0, 3]]"] ;
921 -> 925 ;
926 [label="X[3] <= 0.621\ngini = 0.236\nsamples = 44\nvalue = [[6, 38]\n[38, 6]]"] ;
912 -> 926 ;
927 [label="X[3] <= 0.62\ngini = 0.48\nsamples = 5\nvalue = [[2, 3]\n[3, 2]]"] ;
926 -> 927 ;
928 [label="gini = 0.0\nsamples = 3\nvalue = [[0, 3]\n[3, 0]]"] ;
927 -> 928 ;
929 [label="gini = 0.0\nsamples = 2\nvalue = [[2, 0]\n[0, 2]]"] ;
927 -> 929 ;
930 [label="X[3] <= 0.926\ngini = 0.184\nsamples = 39\nvalue = [[4, 35]\n[35, 4]]"] ;
926 -> 930 ;
931 [label="X[1] <= 0.004\ngini = 0.114\nsamples = 33\nvalue = [[2, 31]\n[31, 2]]"] ;
930 -> 931 ;
932 [label="X[3] <= 0.637\ngini = 0.408\nsamples = 7\nvalue = [[2, 5]\n[5, 2]]"] ;
931 -> 932 ;
933 [label="gini = 0.0\nsamples = 2\nvalue = [[0, 2]\n[2, 0]]"] ;
932 -> 933 ;
934 [label="X[3] <= 0.792\ngini = 0.48\nsamples = 5\nvalue = [[2, 3]\n[3, 2]]"] ;
932 -> 934 ;
935 [label="X[2] <= 0.084\ngini = 0.444\nsamples = 3\nvalue = [[2, 1]\n[1, 2]]"] ;
934 -> 935 ;
936 [label="gini = 0.0\nsamples = 2\nvalue = [[2, 0]\n[0, 2]]"] ;
935 -> 936 ;
937 [label="gini = 0.0\nsamples = 1\nvalue = [[0, 1]\n[1, 0]]"] ;
935 -> 937 ;
938 [label="gini = 0.0\nsamples = 2\nvalue = [[0, 2]\n[2, 0]]"] ;
934 -> 938 ;
939 [label="gini = 0.0\nsamples = 26\nvalue = [[0, 26]\n[26, 0]]"] ;
931 -> 939 ;
940 [label="X[3] <= 0.969\ngini = 0.444\nsamples = 6\nvalue = [[2, 4]\n[4, 2]]"] ;
930 -> 940 ;
941 [label="X[2] <= 0.088\ngini = 0.444\nsamples = 3\nvalue = [[2, 1]\n[1, 2]]"] ;
940 -> 941 ;
942 [label="gini = 0.0\nsamples = 2\nvalue = [[2, 0]\n[0, 2]]"] ;
941 -> 942 ;
943 [label="gini = 0.0\nsamples = 1\nvalue = [[0, 1]\n[1, 0]]"] ;
941 -> 943 ;
944 [label="gini = 0.0\nsamples = 3\nvalue = [[0, 3]\n[3, 0]]"] ;
940 -> 944 ;
945 [label="X[2] <= 0.069\ngini = 0.079\nsamples = 169\nvalue = [[7, 162]\n[162, 7]]"] ;
775 -> 945 ;
946 [label="X[2] <= 0.068\ngini = 0.375\nsamples = 4\nvalue = [[1, 3]\n[3, 1]]"] ;
945 -> 946 ;
947 [label="gini = 0.0\nsamples = 3\nvalue = [[0, 3]\n[3, 0]]"] ;
946 -> 947 ;
948 [label="gini = 0.0\nsamples = 1\nvalue = [[1, 0]\n[0, 1]]"] ;
946 -> 948 ;
949 [label="X[3] <= 0.661\ngini = 0.07\nsamples = 165\nvalue = [[6, 159]\n[159, 6]]"] ;
945 -> 949 ;
950 [label="X[3] <= 0.642\ngini = 0.11\nsamples = 86\nvalue = [[5, 81]\n[81, 5]]"] ;
949 -> 950 ;
951 [label="X[4] <= 0.422\ngini = 0.07\nsamples = 83\nvalue = [[3, 80]\n[80, 3]]"] ;
950 -> 951 ;
952 [label="X[0] <= 0.02\ngini = 0.033\nsamples = 59\nvalue = [[1, 58]\n[58, 1]]"] ;
951 -> 952 ;
953 [label="gini = 0.0\nsamples = 49\nvalue = [[0, 49]\n[49, 0]]"] ;
952 -> 953 ;
954 [label="X[1] <= 0.022\ngini = 0.18\nsamples = 10\nvalue = [[1, 9]\n[9, 1]]"] ;
952 -> 954 ;
955 [label="gini = 0.0\nsamples = 1\nvalue = [[1, 0]\n[0, 1]]"] ;
954 -> 955 ;
956 [label="gini = 0.0\nsamples = 9\nvalue = [[0, 9]\n[9, 0]]"] ;
954 -> 956 ;
957 [label="X[1] <= 0.009\ngini = 0.153\nsamples = 24\nvalue = [[2, 22]\n[22, 2]]"] ;
951 -> 957 ;
958 [label="X[2] <= 0.085\ngini = 0.083\nsamples = 23\nvalue = [[1, 22]\n[22, 1]]"] ;
957 -> 958 ;
959 [label="gini = 0.0\nsamples = 20\nvalue = [[0, 20]\n[20, 0]]"] ;
958 -> 959 ;
960 [label="X[4] <= 0.432\ngini = 0.444\nsamples = 3\nvalue = [[1, 2]\n[2, 1]]"] ;
958 -> 960 ;
961 [label="gini = 0.0\nsamples = 1\nvalue = [[1, 0]\n[0, 1]]"] ;
960 -> 961 ;
962 [label="gini = 0.0\nsamples = 2\nvalue = [[0, 2]\n[2, 0]]"] ;
960 -> 962 ;
963 [label="gini = 0.0\nsamples = 1\nvalue = [[1, 0]\n[0, 1]]"] ;
957 -> 963 ;
964 [label="X[1] <= 0.008\ngini = 0.444\nsamples = 3\nvalue = [[2, 1]\n[1, 2]]"] ;
950 -> 964 ;
965 [label="gini = 0.0\nsamples = 1\nvalue = [[0, 1]\n[1, 0]]"] ;
964 -> 965 ;
966 [label="gini = 0.0\nsamples = 2\nvalue = [[2, 0]\n[0, 2]]"] ;
964 -> 966 ;
967 [label="X[2] <= 0.071\ngini = 0.025\nsamples = 79\nvalue = [[1, 78]\n[78, 1]]"] ;
949 -> 967 ;
968 [label="X[2] <= 0.07\ngini = 0.165\nsamples = 11\nvalue = [[1, 10]\n[10, 1]]"] ;
967 -> 968 ;
969 [label="gini = 0.0\nsamples = 10\nvalue = [[0, 10]\n[10, 0]]"] ;
968 -> 969 ;
970 [label="gini = 0.0\nsamples = 1\nvalue = [[1, 0]\n[0, 1]]"] ;
968 -> 970 ;
971 [label="gini = 0.0\nsamples = 68\nvalue = [[0, 68]\n[68, 0]]"] ;
967 -> 971 ;
972 [label="X[3] <= 0.348\ngini = 0.411\nsamples = 24796\nvalue = [[7162, 17634]\n[17634, 7162]]"] ;
618 -> 972 ;
973 [label="X[3] <= 0.21\ngini = 0.48\nsamples = 3773\nvalue = [[1512, 2261]\n[2261, 1512]]"] ;
972 -> 973 ;
974 [label="X[1] <= 0.008\ngini = 0.5\nsamples = 903\nvalue = [[439, 464]\n[464, 439]]"] ;
973 -> 974 ;
975 [label="X[1] <= 0.007\ngini = 0.5\nsamples = 684\nvalue = [[348, 336]\n[336, 348]]"] ;
974 -> 975 ;
976 [label="X[1] <= 0.007\ngini = 0.5\nsamples = 610\nvalue = [[301, 309]\n[309, 301]]"] ;
975 -> 976 ;
977 [label="X[0] <= 0.006\ngini = 0.5\nsamples = 589\nvalue = [[298, 291]\n[291, 298]]"] ;
976 -> 977 ;
978 [label="X[4] <= 0.467\ngini = 0.5\nsamples = 580\nvalue = [[290, 290]\n[290, 290]]"] ;
977 -> 978 ;
979 [label="X[2] <= 0.156\ngini = 0.464\nsamples = 71\nvalue = [[26, 45]\n[45, 26]]"] ;
978 -> 979 ;
980 [label="X[2] <= 0.139\ngini = 0.465\nsamples = 19\nvalue = [[12, 7]\n[7, 12]]"] ;
979 -> 980 ;
981 [label="X[3] <= 0.171\ngini = 0.497\nsamples = 13\nvalue = [[6, 7]\n[7, 6]]"] ;
980 -> 981 ;
982 [label="X[3] <= 0.157\ngini = 0.278\nsamples = 6\nvalue = [[5, 1]\n[1, 5]]"] ;
981 -> 982 ;
983 [label="gini = 0.0\nsamples = 1\nvalue = [[0, 1]\n[1, 0]]"] ;
982 -> 983 ;
984 [label="gini = 0.0\nsamples = 5\nvalue = [[5, 0]\n[0, 5]]"] ;
982 -> 984 ;
985 [label="X[1] <= 0.006\ngini = 0.245\nsamples = 7\nvalue = [[1, 6]\n[6, 1]]"] ;
981 -> 985 ;
986 [label="gini = 0.0\nsamples = 1\nvalue = [[1, 0]\n[0, 1]]"] ;
985 -> 986 ;
987 [label="gini = 0.0\nsamples = 6\nvalue = [[0, 6]\n[6, 0]]"] ;
985 -> 987 ;
988 [label="gini = 0.0\nsamples = 6\nvalue = [[6, 0]\n[0, 6]]"] ;
980 -> 988 ;
989 [label="X[3] <= 0.201\ngini = 0.393\nsamples = 52\nvalue = [[14, 38]\n[38, 14]]"] ;
979 -> 989 ;
990 [label="X[3] <= 0.169\ngini = 0.439\nsamples = 40\nvalue = [[13, 27]\n[27, 13]]"] ;
989 -> 990 ;
991 [label="X[0] <= 0.006\ngini = 0.231\nsamples = 15\nvalue = [[2, 13]\n[13, 2]]"] ;
990 -> 991 ;
992 [label="X[0] <= 0.006\ngini = 0.133\nsamples = 14\nvalue = [[1, 13]\n[13, 1]]"] ;
991 -> 992 ;
993 [label="X[2] <= 0.252\ngini = 0.375\nsamples = 4\nvalue = [[1, 3]\n[3, 1]]"] ;
992 -> 993 ;
994 [label="gini = 0.0\nsamples = 2\nvalue = [[0, 2]\n[2, 0]]"] ;
993 -> 994 ;
995 [label="X[3] <= 0.167\ngini = 0.5\nsamples = 2\nvalue = [[1, 1]\n[1, 1]]"] ;
993 -> 995 ;
996 [label="gini = 0.0\nsamples = 1\nvalue = [[1, 0]\n[0, 1]]"] ;
995 -> 996 ;
997 [label="gini = 0.0\nsamples = 1\nvalue = [[0, 1]\n[1, 0]]"] ;
995 -> 997 ;
998 [label="gini = 0.0\nsamples = 10\nvalue = [[0, 10]\n[10, 0]]"] ;
992 -> 998 ;
999 [label="gini = 0.0\nsamples = 1\nvalue = [[1, 0]\n[0, 1]]"] ;
991 -> 999 ;
1000 [label="X[2] <= 0.323\ngini = 0.493\nsamples = 25\nvalue = [[11, 14]\n[14, 11]]"] ;
990 -> 1000 ;
1001 [label="X[2] <= 0.249\ngini = 0.463\nsamples = 22\nvalue = [[8, 14]\n[14, 8]]"] ;
1000 -> 1001 ;
1002 [label="X[2] <= 0.211\ngini = 0.494\nsamples = 18\nvalue = [[8, 10]\n[10, 8]]"] ;
1001 -> 1002 ;
1003 [label="X[3] <= 0.195\ngini = 0.397\nsamples = 11\nvalue = [[3, 8]\n[8, 3]]"] ;
1002 -> 1003 ;
1004 [label="X[2] <= 0.164\ngini = 0.198\nsamples = 9\nvalue = [[1, 8]\n[8, 1]]"] ;
1003 -> 1004 ;
1005 [label="X[3] <= 0.178\ngini = 0.5\nsamples = 2\nvalue = [[1, 1]\n[1, 1]]"] ;
1004 -> 1005 ;
1006 [label="gini = 0.0\nsamples = 1\nvalue = [[1, 0]\n[0, 1]]"] ;
1005 -> 1006 ;
1007 [label="gini = 0.0\nsamples = 1\nvalue = [[0, 1]\n[1, 0]]"] ;
1005 -> 1007 ;
1008 [label="gini = 0.0\nsamples = 7\nvalue = [[0, 7]\n[7, 0]]"] ;
1004 -> 1008 ;
1009 [label="gini = 0.0\nsamples = 2\nvalue = [[2, 0]\n[0, 2]]"] ;
1003 -> 1009 ;
1010 [label="X[3] <= 0.194\ngini = 0.408\nsamples = 7\nvalue = [[5, 2]\n[2, 5]]"] ;
1002 -> 1010 ;
1011 [label="gini = 0.0\nsamples = 5\nvalue = [[5, 0]\n[0, 5]]"] ;
1010 -> 1011 ;
1012 [label="gini = 0.0\nsamples = 2\nvalue = [[0, 2]\n[2, 0]]"] ;
1010 -> 1012 ;
1013 [label="gini = 0.0\nsamples = 4\nvalue = [[0, 4]\n[4, 0]]"] ;
1001 -> 1013 ;
1014 [label="gini = 0.0\nsamples = 3\nvalue = [[3, 0]\n[0, 3]]"] ;
1000 -> 1014 ;
1015 [label="X[2] <= 0.435\ngini = 0.153\nsamples = 12\nvalue = [[1, 11]\n[11, 1]]"] ;
989 -> 1015 ;
1016 [label="gini = 0.0\nsamples = 10\nvalue = [[0, 10]\n[10, 0]]"] ;
1015 -> 1016 ;
1017 [label="X[1] <= 0.006\ngini = 0.5\nsamples = 2\nvalue = [[1, 1]\n[1, 1]]"] ;
1015 -> 1017 ;
1018 [label="gini = 0.0\nsamples = 1\nvalue = [[1, 0]\n[0, 1]]"] ;
1017 -> 1018 ;
1019 [label="gini = 0.0\nsamples = 1\nvalue = [[0, 1]\n[1, 0]]"] ;
1017 -> 1019 ;
1020 [label="X[4] <= 0.529\ngini = 0.499\nsamples = 509\nvalue = [[264, 245]\n[245, 264]]"] ;
978 -> 1020 ;
1021 [label="X[0] <= 0.003\ngini = 0.498\nsamples = 468\nvalue = [[250, 218]\n[218, 250]]"] ;
1020 -> 1021 ;
1022 [label="X[3] <= 0.156\ngini = 0.367\nsamples = 33\nvalue = [[25, 8]\n[8, 25]]"] ;
1021 -> 1022 ;
1023 [label="gini = 0.0\nsamples = 2\nvalue = [[0, 2]\n[2, 0]]"] ;
1022 -> 1023 ;
1024 [label="X[4] <= 0.528\ngini = 0.312\nsamples = 31\nvalue = [[25, 6]\n[6, 25]]"] ;
1022 -> 1024 ;
1025 [label="gini = 0.0\nsamples = 6\nvalue = [[6, 0]\n[0, 6]]"] ;
1024 -> 1025 ;
1026 [label="X[2] <= 0.15\ngini = 0.365\nsamples = 25\nvalue = [[19, 6]\n[6, 19]]"] ;
1024 -> 1026 ;
1027 [label="X[2] <= 0.113\ngini = 0.48\nsamples = 5\nvalue = [[2, 3]\n[3, 2]]"] ;
1026 -> 1027 ;
1028 [label="X[4] <= 0.528\ngini = 0.444\nsamples = 3\nvalue = [[2, 1]\n[1, 2]]"] ;
1027 -> 1028 ;
1029 [label="gini = 0.0\nsamples = 1\nvalue = [[0, 1]\n[1, 0]]"] ;
1028 -> 1029 ;
1030 [label="gini = 0.0\nsamples = 2\nvalue = [[2, 0]\n[0, 2]]"] ;
1028 -> 1030 ;
1031 [label="gini = 0.0\nsamples = 2\nvalue = [[0, 2]\n[2, 0]]"] ;
1027 -> 1031 ;
1032 [label="X[3] <= 0.188\ngini = 0.255\nsamples = 20\nvalue = [[17, 3]\n[3, 17]]"] ;
1026 -> 1032 ;
1033 [label="X[3] <= 0.18\ngini = 0.375\nsamples = 12\nvalue = [[9, 3]\n[3, 9]]"] ;
1032 -> 1033 ;
1034 [label="X[2] <= 0.282\ngini = 0.18\nsamples = 10\nvalue = [[9, 1]\n[1, 9]]"] ;
1033 -> 1034 ;
1035 [label="gini = 0.0\nsamples = 6\nvalue = [[6, 0]\n[0, 6]]"] ;
1034 -> 1035 ;
1036 [label="X[2] <= 0.303\ngini = 0.375\nsamples = 4\nvalue = [[3, 1]\n[1, 3]]"] ;
1034 -> 1036 ;
1037 [label="gini = 0.0\nsamples = 1\nvalue = [[0, 1]\n[1, 0]]"] ;
1036 -> 1037 ;
1038 [label="gini = 0.0\nsamples = 3\nvalue = [[3, 0]\n[0, 3]]"] ;
1036 -> 1038 ;
1039 [label="gini = 0.0\nsamples = 2\nvalue = [[0, 2]\n[2, 0]]"] ;
1033 -> 1039 ;
1040 [label="gini = 0.0\nsamples = 8\nvalue = [[8, 0]\n[0, 8]]"] ;
1032 -> 1040 ;
1041 [label="X[2] <= 0.1\ngini = 0.499\nsamples = 435\nvalue = [[225, 210]\n[210, 225]]"] ;
1021 -> 1041 ;
1042 [label="X[0] <= 0.004\ngini = 0.198\nsamples = 9\nvalue = [[8, 1]\n[1, 8]]"] ;
1041 -> 1042 ;
1043 [label="gini = 0.0\nsamples = 1\nvalue = [[0, 1]\n[1, 0]]"] ;
1042 -> 1043 ;
1044 [label="gini = 0.0\nsamples = 8\nvalue = [[8, 0]\n[0, 8]]"] ;
1042 -> 1044 ;
1045 [label="X[2] <= 0.104\ngini = 0.5\nsamples = 426\nvalue = [[217, 209]\n[209, 217]]"] ;
1041 -> 1045 ;
1046 [label="gini = 0.0\nsamples = 9\nvalue = [[0, 9]\n[9, 0]]"] ;
1045 -> 1046 ;
1047 [label="X[2] <= 0.117\ngini = 0.499\nsamples = 417\nvalue = [[217, 200]\n[200, 217]]"] ;
1045 -> 1047 ;
1048 [label="X[3] <= 0.207\ngini = 0.305\nsamples = 16\nvalue = [[13, 3]\n[3, 13]]"] ;
1047 -> 1048 ;
1049 [label="X[2] <= 0.105\ngini = 0.133\nsamples = 14\nvalue = [[13, 1]\n[1, 13]]"] ;
1048 -> 1049 ;
1050 [label="X[4] <= 0.522\ngini = 0.5\nsamples = 2\nvalue = [[1, 1]\n[1, 1]]"] ;
1049 -> 1050 ;
1051 [label="gini = 0.0\nsamples = 1\nvalue = [[1, 0]\n[0, 1]]"] ;
1050 -> 1051 ;
1052 [label="gini = 0.0\nsamples = 1\nvalue = [[0, 1]\n[1, 0]]"] ;
1050 -> 1052 ;
1053 [label="gini = 0.0\nsamples = 12\nvalue = [[12, 0]\n[0, 12]]"] ;
1049 -> 1053 ;
1054 [label="gini = 0.0\nsamples = 2\nvalue = [[0, 2]\n[2, 0]]"] ;
1048 -> 1054 ;
1055 [label="X[2] <= 0.137\ngini = 0.5\nsamples = 401\nvalue = [[204, 197]\n[197, 204]]"] ;
1047 -> 1055 ;
1056 [label="X[0] <= 0.004\ngini = 0.422\nsamples = 33\nvalue = [[10, 23]\n[23, 10]]"] ;
1055 -> 1056 ;
1057 [label="X[4] <= 0.512\ngini = 0.494\nsamples = 9\nvalue = [[5, 4]\n[4, 5]]"] ;
1056 -> 1057 ;
1058 [label="gini = 0.0\nsamples = 4\nvalue = [[4, 0]\n[0, 4]]"] ;
1057 -> 1058 ;
1059 [label="X[4] <= 0.52\ngini = 0.32\nsamples = 5\nvalue = [[1, 4]\n[4, 1]]"] ;
1057 -> 1059 ;
1060 [label="gini = 0.0\nsamples = 3\nvalue = [[0, 3]\n[3, 0]]"] ;
1059 -> 1060 ;
1061 [label="X[3] <= 0.183\ngini = 0.5\nsamples = 2\nvalue = [[1, 1]\n[1, 1]]"] ;
1059 -> 1061 ;
1062 [label="gini = 0.0\nsamples = 1\nvalue = [[0, 1]\n[1, 0]]"] ;
1061 -> 1062 ;
1063 [label="gini = 0.0\nsamples = 1\nvalue = [[1, 0]\n[0, 1]]"] ;
1061 -> 1063 ;
1064 [label="X[2] <= 0.128\ngini = 0.33\nsamples = 24\nvalue = [[5, 19]\n[19, 5]]"] ;
1056 -> 1064 ;
1065 [label="X[0] <= 0.004\ngini = 0.444\nsamples = 15\nvalue = [[5, 10]\n[10, 5]]"] ;
1064 -> 1065 ;
1066 [label="gini = 0.0\nsamples = 6\nvalue = [[0, 6]\n[6, 0]]"] ;
1065 -> 1066 ;
1067 [label="X[2] <= 0.123\ngini = 0.494\nsamples = 9\nvalue = [[5, 4]\n[4, 5]]"] ;
1065 -> 1067 ;
1068 [label="X[3] <= 0.2\ngini = 0.444\nsamples = 6\nvalue = [[2, 4]\n[4, 2]]"] ;
1067 -> 1068 ;
1069 [label="X[0] <= 0.005\ngini = 0.32\nsamples = 5\nvalue = [[1, 4]\n[4, 1]]"] ;
1068 -> 1069 ;
1070 [label="gini = 0.0\nsamples = 3\nvalue = [[0, 3]\n[3, 0]]"] ;
1069 -> 1070 ;
1071 [label="X[3] <= 0.157\ngini = 0.5\nsamples = 2\nvalue = [[1, 1]\n[1, 1]]"] ;
1069 -> 1071 ;
1072 [label="gini = 0.0\nsamples = 1\nvalue = [[0, 1]\n[1, 0]]"] ;
1071 -> 1072 ;
1073 [label="gini = 0.0\nsamples = 1\nvalue = [[1, 0]\n[0, 1]]"] ;
1071 -> 1073 ;
1074 [label="gini = 0.0\nsamples = 1\nvalue = [[1, 0]\n[0, 1]]"] ;
1068 -> 1074 ;
1075 [label="gini = 0.0\nsamples = 3\nvalue = [[3, 0]\n[0, 3]]"] ;
1067 -> 1075 ;
1076 [label="gini = 0.0\nsamples = 9\nvalue = [[0, 9]\n[9, 0]]"] ;
1064 -> 1076 ;
1077 [label="X[3] <= 0.207\ngini = 0.499\nsamples = 368\nvalue = [[194, 174]\n[174, 194]]"] ;
1055 -> 1077 ;
1078 [label="X[3] <= 0.194\ngini = 0.5\nsamples = 347\nvalue = [[178, 169]\n[169, 178]]"] ;
1077 -> 1078 ;
1079 [label="X[3] <= 0.152\ngini = 0.494\nsamples = 261\nvalue = [[145, 116]\n[116, 145]]"] ;
1078 -> 1079 ;
1080 [label="gini = 0.0\nsamples = 3\nvalue = [[0, 3]\n[3, 0]]"] ;
1079 -> 1080 ;
1081 [label="X[3] <= 0.193\ngini = 0.492\nsamples = 258\nvalue = [[145, 113]\n[113, 145]]"] ;
1079 -> 1081 ;
1082 [label="X[3] <= 0.192\ngini = 0.494\nsamples = 251\nvalue = [[139, 112]\n[112, 139]]"] ;
1081 -> 1082 ;
1083 [label="X[2] <= 0.229\ngini = 0.491\nsamples = 244\nvalue = [[138, 106]\n[106, 138]]"] ;
1082 -> 1083 ;
1084 [label="X[4] <= 0.486\ngini = 0.47\nsamples = 119\nvalue = [[74, 45]\n[45, 74]]"] ;
1083 -> 1084 ;
1085 [label="X[1] <= 0.005\ngini = 0.236\nsamples = 22\nvalue = [[19, 3]\n[3, 19]]"] ;
1084 -> 1085 ;
1086 [label="gini = 0.0\nsamples = 11\nvalue = [[11, 0]\n[0, 11]]"] ;
1085 -> 1086 ;
1087 [label="X[3] <= 0.17\ngini = 0.397\nsamples = 11\nvalue = [[8, 3]\n[3, 8]]"] ;
1085 -> 1087 ;
1088 [label="X[3] <= 0.157\ngini = 0.444\nsamples = 3\nvalue = [[1, 2]\n[2, 1]]"] ;
1087 -> 1088 ;
1089 [label="gini = 0.0\nsamples = 1\nvalue = [[1, 0]\n[0, 1]]"] ;
1088 -> 1089 ;
1090 [label="gini = 0.0\nsamples = 2\nvalue = [[0, 2]\n[2, 0]]"] ;
1088 -> 1090 ;
1091 [label="X[3] <= 0.177\ngini = 0.219\nsamples = 8\nvalue = [[7, 1]\n[1, 7]]"] ;
1087 -> 1091 ;
1092 [label="X[3] <= 0.174\ngini = 0.375\nsamples = 4\nvalue = [[3, 1]\n[1, 3]]"] ;
1091 -> 1092 ;
1093 [label="gini = 0.0\nsamples = 3\nvalue = [[3, 0]\n[0, 3]]"] ;
1092 -> 1093 ;
1094 [label="gini = 0.0\nsamples = 1\nvalue = [[0, 1]\n[1, 0]]"] ;
1092 -> 1094 ;
1095 [label="gini = 0.0\nsamples = 4\nvalue = [[4, 0]\n[0, 4]]"] ;
1091 -> 1095 ;
1096 [label="X[2] <= 0.183\ngini = 0.491\nsamples = 97\nvalue = [[55, 42]\n[42, 55]]"] ;
1084 -> 1096 ;
1097 [label="X[3] <= 0.19\ngini = 0.491\nsamples = 46\nvalue = [[20, 26]\n[26, 20]]"] ;
1096 -> 1097 ;
1098 [label="X[2] <= 0.177\ngini = 0.464\nsamples = 41\nvalue = [[15, 26]\n[26, 15]]"] ;
1097 -> 1098 ;
1099 [label="X[4] <= 0.508\ngini = 0.498\nsamples = 32\nvalue = [[15, 17]\n[17, 15]]"] ;
1098 -> 1099 ;
1100 [label="X[0] <= 0.005\ngini = 0.475\nsamples = 18\nvalue = [[11, 7]\n[7, 11]]"] ;
1099 -> 1100 ;
1101 [label="X[2] <= 0.142\ngini = 0.408\nsamples = 14\nvalue = [[10, 4]\n[4, 10]]"] ;
1100 -> 1101 ;
1102 [label="gini = 0.0\nsamples = 1\nvalue = [[0, 1]\n[1, 0]]"] ;
1101 -> 1102 ;
1103 [label="X[3] <= 0.157\ngini = 0.355\nsamples = 13\nvalue = [[10, 3]\n[3, 10]]"] ;
1101 -> 1103 ;
1104 [label="gini = 0.0\nsamples = 1\nvalue = [[0, 1]\n[1, 0]]"] ;
1103 -> 1104 ;
1105 [label="X[0] <= 0.004\ngini = 0.278\nsamples = 12\nvalue = [[10, 2]\n[2, 10]]"] ;
1103 -> 1105 ;
1106 [label="gini = 0.0\nsamples = 7\nvalue = [[7, 0]\n[0, 7]]"] ;
1105 -> 1106 ;
1107 [label="X[0] <= 0.005\ngini = 0.48\nsamples = 5\nvalue = [[3, 2]\n[2, 3]]"] ;
1105 -> 1107 ;
1108 [label="X[2] <= 0.15\ngini = 0.444\nsamples = 3\nvalue = [[1, 2]\n[2, 1]]"] ;
1107 -> 1108 ;
1109 [label="gini = 0.0\nsamples = 1\nvalue = [[1, 0]\n[0, 1]]"] ;
1108 -> 1109 ;
1110 [label="gini = 0.0\nsamples = 2\nvalue = [[0, 2]\n[2, 0]]"] ;
1108 -> 1110 ;
1111 [label="gini = 0.0\nsamples = 2\nvalue = [[2, 0]\n[0, 2]]"] ;
1107 -> 1111 ;
1112 [label="X[3] <= 0.169\ngini = 0.375\nsamples = 4\nvalue = [[1, 3]\n[3, 1]]"] ;
1100 -> 1112 ;
1113 [label="gini = 0.0\nsamples = 1\nvalue = [[1, 0]\n[0, 1]]"] ;
1112 -> 1113 ;
1114 [label="gini = 0.0\nsamples = 3\nvalue = [[0, 3]\n[3, 0]]"] ;
1112 -> 1114 ;
1115 [label="X[2] <= 0.173\ngini = 0.408\nsamples = 14\nvalue = [[4, 10]\n[10, 4]]"] ;
1099 -> 1115 ;
1116 [label="X[3] <= 0.185\ngini = 0.18\nsamples = 10\nvalue = [[1, 9]\n[9, 1]]"] ;
1115 -> 1116 ;
