digraph Tree {
node [shape=box, fontname="helvetica"] ;
edge [fontname="helvetica"] ;
0 [label="X[1] <= 18226327.82\nentropy = 0.461\nsamples = 89019\nvalue = [80352, 8667]"] ;
1 [label="X[1] <= 6287417.257\nentropy = 0.392\nsamples = 23318\nvalue = [21518, 1800]"] ;
0 -> 1 [labeldistance=2.5, labelangle=45, headlabel="True"] ;
2 [label="entropy = 0.229\nsamples = 10194\nvalue = [9815, 379]"] ;
1 -> 2 ;
3 [label="entropy = 0.495\nsamples = 13124\nvalue = [11703, 1421]"] ;
1 -> 3 ;
4 [label="X[0] <= 30101.431\nentropy = 0.483\nsamples = 65701\nvalue = [58834, 6867]"] ;
0 -> 4 [labeldistance=2.5, labelangle=-45, headlabel="False"] ;
5 [label="entropy = 0.232\nsamples = 15434\nvalue = [14850, 584]"] ;
4 -> 5 ;
6 [label="entropy = 0.544\nsamples = 50267\nvalue = [43984, 6283]"] ;
4 -> 6 ;
}